Q41,-0.063388,-0.181451,0.057501,-0.091254,-0.076217,-0.052525,0.0505,-0.224871,-0.018145,0.030722,0.064276,0.073063,0.039489,0.159404,-0.128784,0.016325,0.026797,0.13709,0.001849,-0.059103,0.012091,0.045418,0.000591,0.211337,-0.034093,-0.074582,0.014004,-0.099355,0.170144,0.109376,-0.014797,0.071172,0.080375,0.045563,-0.046462,0.070108,0.015413,-0.020874,-0.170324,-0.00113,0.05981,0.054342,0.027358,-0.028995,-0.224508,0.066281,-0.200006,0.018186,0.082396,0.167178,-0.136239,0.055134,-0.080195,-0.00146,0.031078,-0.017084,-0.091176,-0.036916,0.124642,-0.098185,-0.054836,0.152483,-0.053712,0.092816,-0.112044,-0.072247,-0.114896,-0.036541,-0.186339,-0.16061,0.037342,-0.133474,0.11008,0.070678,-0.005586,-0.046667,-0.07201,0.086424,0.026165,0.030561,0.077888,-0.117226,0.211597,0.112512,0.079999,-0.083398,-0.121117,0.071751,-0.017654,-0.134979,-0.051949,0.001861,0.124535,-0.151043,-0.263698,-0.103607,0.020007,-0.101157,-0.091567,0.035234,
Q56037,0.02155,-0.044888,-0.027872,-0.128843,0.066651,-0.072159,0.019879,-0.183956,0.08064,0.069166,-0.010029,-0.042466,-0.045126,-0.10725,-0.138343,-0.041894,-0.089376,0.008494,-0.035197,-0.019311,0.044393,-0.020168,-0.119964,0.128805,0.069869,-0.118373,0.049027,0.017122,0.023251,0.187165,-0.085446,0.057633,0.055451,0.019157,-0.157557,0.182949,-0.064166,-0.037344,0.032589,0.047193,-0.187472,-0.02115,0.080669,0.015979,-0.141172,0.100069,-0.019638,0.046921,-0.033486,0.153717,-0.137174,-0.003173,0.148454,-0.055801,-0.104945,-0.059554,0.078643,-0.164241,0.074333,-0.112893,-0.086524,0.139236,0.006486,0.081578,-0.033565,-0.138943,-0.012322,-0.125677,-0.119072,-0.050572,-0.117274,-0.139788,0.090027,0.005516,0.018046,-0.132586,-0.114572,0.174543,0.035025,0.015231,0.122872,0.007038,0.019467,-0.019752,0.102638,-0.091577,-0.056262,-0.020518,-0.021345,-0.080827,-0.077181,0.091477,0.091388,-0.027993,-0.112258,-0.231887,0.095612,-0.008997,-0.157394,0.088364,
Q1860,0.060958,0.069934,0.015832,0.079471,-0.023362,-0.125007,-0.043618,0.134063,-0.121691,0.089166,0.129177,0.148145,0.027196,-0.060636,0.06876,0.071959,0.150306,-0.099519,-0.050912,0.123948,-0.190319,-0.096762,-0.006279,-0.08681,-0.026199,0.017013,0.043436,0.058991,-0.131758,0.032473,-0.137706,-0.009527,0.085008,-0.060163,0.044856,0.03002,-0.042486,-0.098337,-0.024715,0.054446,-0.05623,0.161813,-0.106716,-0.052167,0.013636,0.132148,0.044919,0.074031,-0.085483,-0.083199,-0.007451,0.113236,0.098931,-0.079819,-0.02629,0.051472,-0.092252,0.068104,0.016942,0.009106,-0.062264,-0.001102,0.050228,0.016879,-0.026729,-0.051632,-0.08304,-0.14388,0.066569,-0.014793,-0.047219,-0.03439,0.009343,-0.002716,-0.094623,0.000528,-0.055017,-0.013458,-0.038277,-0.067144,0.091749,0.018254,-0.080948,0.06285,0.117076,-0.115282,0.050163,0.091078,-0.166571,0.056171,-0.070713,-0.014287,0.013578,0.099977,0.012199,-0.141138,0.056129,-0.133727,0.025795,0.051448,
Q39631,-0.093106,-0.052002,0.020556,-0.020801,0.04318,-0.072321,0.00091,0.028156,0.176303,0.035396,0.072642,0.000239,-0.171645,-0.034816,-0.106319,-0.082187,-0.022322,-0.121248,-0.084962,-0.146949,-0.015364,0.240605,-0.165207,0.033926,-0.055561,0.263102,-0.018281,-0.07163,0.067349,0.021943,-0.066642,0.154693,0.039514,-0.115533,0.157337,-0.018109,0.093555,-0.136766,-0.106228,0.020897,0.030024,-0.109274,-0.120507,0.046796,0.016082,0.063581,0.021472,-0.177214,-0.037778,0.089867,0.014073,0.014801,-0.083897,-0.009868,0.065859,-0.192299,0.013885,0.035729,0.025541,-0.107844,-0.215149,0.090272,0.13167,-0.065807,-0.119546,0.131104,-0.087323,0.118188,0.166771,0.014317,0.117788,-0.069088,0.002963,-0.008588,0.016064,0.007934,-0.115904,-0.066542,0.071987,0.078646,-0.036828,-0.134134,-0.158453,0.077707,-0.028514,-0.155193,-0.047059,0.035694,-0.107131,-0.000372,-0.124472,-0.08684,-0.078992,-0.062712,0.051117,-0.184307,0.127637,-0.144866,0.04469,0.013498,
Q30,-0.115737,-0.179113,0.102739,-0.112469,-0.101853,-0.177516,0.01586,-0.092626,0.086708,0.05785,0.176422,0.070668,0.071584,0.030533,-0.179654,-0.032312,0.047596,-0.028751,-0.031293,-0.044283,-0.144224,-0.089542,-0.046,0.215515,0.075296,-0.062332,-0.002456,0.035293,0.10955,0.052809,-0.081734,0.066101,0.148733,-0.073003,0.075038,-0.099213,-0.091732,-0.114809,-0.063178,0.076927,-0.066233,0.130834,-0.081943,-0.017894,-0.084129,-0.098396,-0.076425,0.145224,0.047662,0.061124,-0.147525,-0.035232,0.080132,0.075315,0.066264,0.053224,-0.008282,0.038551,-0.044559,-0.081108,-0.078284,0.11618,0.082531,0.101352,0.054269,-0.193552,-0.144609,-0.109713,-0.026049,-0.020009,-0.121075,-0.218548,0.150953,0.072083,-0.089645,-0.004471,-0.049331,0.189673,0.001631,0.156474,-0.022464,-0.082198,0.069881,0.183586,0.175343,0.005146,-0.028398,0.026972,-0.105001,-0.019177,0.005893,0.080511,-8.5e-05,-0.089968,-0.083486,-0.149992,-0.053031,-0.136071,-0.029001,0.174155,
Q60,-0.051036,-0.165637,0.132802,-0.089949,-0.146637,-0.142246,0.103853,-0.129651,0.096265,0.017288,0.096343,0.120867,0.139412,-0.101083,-0.105518,-0.044083,-0.081574,0.00825,-0.064942,-0.139662,-0.079039,0.029418,-0.049928,0.183146,-0.028249,-0.062579,-0.009422,-0.038783,0.099171,0.117744,-0.073817,0.030925,0.072817,-0.074308,-0.058244,0.053969,-0.176053,-0.110216,-0.087142,-0.031469,-0.138299,0.008009,-0.02006,-0.068153,-0.157539,-0.10143,-0.050036,0.041379,-0.044153,0.013049,-0.299345,0.061024,0.156111,0.050081,0.044341,-0.033624,0.023531,-0.030379,0.027055,-0.134954,-0.084445,0.103199,0.057259,0.082226,0.028525,-0.180036,-0.129249,-0.131783,-0.041311,-0.038343,-0.133523,-0.177585,0.153199,0.074922,-0.123952,-0.087973,0.018191,0.186848,0.074991,0.036592,0.086934,0.031789,0.094553,0.132498,0.139359,0.012824,-0.008956,-0.02369,-0.09444,-0.11028,-0.002713,0.078628,0.003711,-0.058953,-0.154067,-0.117159,-0.031614,-0.140451,0.001288,0.14035,
Q183,0.05278,-0.139523,-0.027571,-0.196823,0.059276,-0.109428,-0.000309,-0.136393,0.10272,0.121319,0.071908,0.042969,-0.096429,-0.063159,-0.200479,-0.082658,-0.063683,0.023372,0.091007,-0.095005,0.046738,-0.112548,0.004605,0.245637,-0.045688,-0.101561,-0.036867,0.010652,0.032673,0.157005,-0.08363,0.021113,0.024588,0.080991,-0.082278,0.062274,-0.008487,-0.102282,-0.064237,-0.021552,-0.084062,0.06887,-0.057419,0.061245,-0.104631,0.066542,0.038321,0.037396,-0.086741,0.18561,-0.205108,-0.047976,0.078273,-0.018511,-0.089128,-0.00627,0.064777,-0.088325,0.109727,-0.15523,-0.129526,0.165279,0.131007,0.12906,-0.106593,-0.150722,-0.091085,-0.112682,-0.056373,-0.02077,0.03917,-0.129114,0.065624,-0.019983,0.051058,-0.163581,-0.094804,0.189924,0.100883,0.071284,0.067666,-0.151582,-0.052056,-0.016836,0.13874,-0.044128,-0.077458,0.123951,-0.05931,-0.064021,-0.142608,0.124094,0.033303,0.002088,-0.15679,-0.136416,-0.031329,-0.057276,-0.117307,0.031699,
Q2736,-0.091826,-0.021255,-0.049415,-0.167199,0.028283,-0.01062,-0.026264,-0.082447,0.089347,0.167264,0.075981,-0.050905,-0.154439,-0.147008,-0.091066,-0.004207,-0.128424,-0.005781,0.009455,-0.044549,-0.040015,0.09542,0.117951,0.204162,-0.078846,-0.062778,0.021124,-0.028999,0.039346,-0.010838,-0.090155,0.093813,-0.099616,0.117664,0.111465,-0.095218,0.050001,-0.184874,-0.174516,0.053838,0.08759,-0.109119,-0.031593,0.102167,-0.18176,0.146808,0.060284,0.058172,-0.044133,0.025225,-0.090837,-0.060982,-0.069923,0.073548,0.175459,-0.166402,-0.038762,-0.183782,0.123756,-0.081202,-0.182734,0.106419,-0.013794,0.183935,0.071953,-0.046092,-0.073254,-0.04679,0.036589,-0.196234,0.16243,-0.062388,0.00579,-0.010702,0.005714,-0.068216,-0.086501,-0.101388,0.220901,0.008973,0.008545,-0.081549,-0.006583,-0.02441,0.072666,-0.082889,-0.036235,-0.01681,-0.079603,-0.061401,-0.035777,-0.208701,-0.17464,0.005466,-0.082729,-0.05506,0.058044,-0.033938,0.103987,-0.131534,
Q21198,-0.096089,-0.006838,-0.02784,-0.098632,0.020599,0.047792,-0.020709,-0.056511,0.035283,0.178778,0.08729,-0.031186,-0.02985,0.011333,-0.037326,0.023608,-0.070336,-0.028701,0.023132,-0.077669,-0.101206,-0.012818,-0.0903,0.120265,-0.077388,-0.109966,-0.023424,-0.010339,0.114636,0.172683,-0.053026,0.091007,0.148174,-0.023116,0.065842,-0.089706,-0.002587,-0.21375,-0.111178,-0.154803,0.059339,0.073344,-0.016702,0.089448,-0.063383,2.3e-05,-0.00065,0.007571,0.045893,0.0351,-0.080119,-0.057483,0.001832,-0.009891,0.142806,0.005737,-0.091254,0.001658,-0.006884,-0.034704,-0.188781,0.195237,0.084604,0.080966,-0.023892,0.009752,-0.050816,0.068148,0.041287,-0.024006,0.043118,0.060739,0.056796,0.103261,-0.004283,-0.077891,-0.037454,-0.072136,0.127039,0.055696,-0.049349,-0.089109,-0.016487,0.139033,0.048003,-0.087494,-0.040164,0.09362,0.085923,-0.030037,-0.16283,-0.032185,0.003692,-0.09055,-0.013342,-0.114378,0.104594,-0.116058,0.011362,0.066023,
Q131524,0.004348,0.028879,-0.008639,-0.080811,0.078301,-0.080898,-0.197224,-0.032734,0.028527,0.158976,-0.023941,0.049714,-0.010877,-0.027948,-0.051679,-0.079843,-0.030237,0.01499,-0.133235,-0.19567,-0.029253,0.053977,0.013292,0.165005,-0.189878,0.044766,-0.116346,0.001867,-0.161888,0.182456,-0.024968,0.158898,0.031074,-0.00863,0.044675,-0.070947,0.072464,-0.069361,-0.080882,-0.150054,0.127753,0.003034,-0.111048,-0.110697,-0.010461,-0.015355,0.109912,0.004586,-0.077677,-0.104388,-0.002693,0.004262,0.030557,0.106057,0.090649,-0.025395,-0.059537,0.027617,0.093307,-0.133617,-0.051931,0.131769,0.03353,0.039732,-0.062244,0.187314,-0.039744,0.116677,0.059522,0.001079,0.133314,-0.097117,0.185236,0.163423,-0.062233,-0.116782,-0.054687,0.106343,0.083761,0.145893,-0.043564,-0.068547,-0.053584,0.0318,-0.017776,-0.042677,-0.123835,0.041658,-0.028994,0.106158,-0.146982,0.052884,-0.03583,-0.056841,0.112574,-0.050158,0.080216,-0.064715,0.01344,0.147125,
Q12788174,-0.080052,0.111832,0.076317,-0.084863,-0.021116,0.063792,-0.153752,-0.013421,-0.073218,0.029171,0.141268,-0.021307,0.003717,0.051501,0.148839,0.018073,0.025936,-0.124585,0.076584,-0.025394,0.135777,-0.114173,0.073007,0.012444,-0.08163,0.178838,-0.212039,-0.060638,0.158986,0.044091,-0.070994,-0.078736,-0.018955,-0.093049,0.142295,-0.041607,-0.026151,0.089793,0.12894,-0.010669,-0.078999,0.039249,0.065089,-0.001806,0.054208,-0.079816,0.119783,-0.172566,-0.018317,0.007424,-0.07656,0.127904,-0.002774,-0.037628,0.152144,-0.043512,-0.109209,0.117849,0.170115,-0.021233,0.053905,0.03571,-0.09077,-0.063504,-0.156268,-0.085145,-0.044742,0.067918,-0.201333,-0.109374,0.083992,-0.034173,0.146316,-0.082082,0.151116,0.111703,0.017507,-0.156088,0.088399,-0.168507,-0.221403,0.040411,-0.116183,0.045522,-0.088536,-0.176866,-0.017667,0.081695,-0.015723,-0.134599,0.002118,-0.087969,-0.015496,0.068311,0.145457,-0.02832,-0.034608,-0.031307,0.026434,0.002496,
Q142,0.044556,0.005308,0.135917,-0.203567,0.024435,-0.098517,-0.039502,-0.222709,0.090129,0.066471,0.002758,-0.095197,0.034142,-0.072208,-0.185623,0.02952,0.019927,0.010479,-0.064452,-0.153348,-0.02007,-0.14774,-0.085789,0.218043,-0.049951,-0.020389,-0.121412,-0.122345,0.188209,0.088205,-0.160137,0.044453,0.182025,-0.015052,-0.082576,0.015407,-0.113224,-0.038591,-0.209592,0.039937,-0.084937,0.043671,-0.076379,0.050494,-0.209399,0.043353,-0.009264,0.011398,-0.032937,0.046068,-0.253795,0.026707,0.007059,0.016552,0.029239,0.132326,-0.036011,-0.00032,0.09346,-0.109315,-0.144182,-0.010806,0.00281,0.046756,-0.088752,-0.15471,-0.05614,-0.005077,-0.126332,-0.150532,-0.012088,-0.170439,0.023162,0.037244,0.076428,-0.028494,-0.146363,0.03701,0.156823,0.05299,-0.106212,-0.067061,-0.00634,0.055948,0.019457,-0.151748,-0.044308,0.103715,-0.061418,-0.111679,-0.034093,0.112751,-0.013112,-0.088756,-0.0578,-0.127512,-0.039089,-0.069653,-0.088173,0.129746,
Q298,0.013886,-0.088592,-0.004194,-0.072603,0.001292,-0.045497,0.066282,-0.035162,0.150286,0.127842,0.046571,-0.014518,-0.113814,0.136367,-0.067443,0.10529,-0.009575,0.158901,-0.016872,-0.083689,0.017555,0.060206,-0.137524,0.106587,0.022974,-0.173552,0.076526,-0.022704,0.116745,0.167751,-0.025723,-0.08216,0.082823,-0.063323,0.026952,0.008708,-0.137084,-0.076455,-0.211405,0.061936,-0.045867,-0.057937,-0.008356,0.046313,-0.196345,0.0223,-0.015296,0.112109,0.034873,0.076192,-0.178585,0.029828,0.080438,0.109903,-0.013102,0.015405,-0.096051,-0.082248,0.040895,-0.096326,-0.220208,0.0582,0.141998,0.177819,0.02332,-0.090918,-0.113728,0.018921,-0.037887,-0.135579,0.031818,-0.061268,0.110421,0.103549,-0.076738,0.007104,-0.161316,0.141885,0.015716,-0.035959,0.073154,-0.137737,0.064166,0.119323,0.177027,-0.055488,-0.09976,0.154176,-0.140744,-0.129998,-0.052805,-0.067595,-0.020341,-0.007287,-0.220296,-0.094287,0.080416,-0.007134,-0.153869,0.038773,
Q2887,0.039071,-0.076391,0.015528,0.011815,-0.022475,-0.039344,0.104316,0.002287,0.130517,0.079433,-0.037178,0.003843,-0.060743,0.064001,-0.083436,0.107281,-0.027633,0.015093,-0.01043,-0.021315,0.039283,0.173929,-0.105018,0.077832,-0.009258,-0.116715,0.077945,-0.009808,0.09211,0.156532,0.035711,-0.072647,0.072227,-0.120191,-0.023378,0.071554,-0.171808,-0.030581,-0.15581,0.049456,-0.113027,-0.160969,0.051716,0.044831,-0.171451,0.022138,0.013077,0.084984,0.038707,0.038518,-0.239056,0.018055,0.137126,0.024547,-0.049378,-0.001633,-0.095982,-0.12134,0.045445,-0.086763,-0.164447,0.014942,0.110385,0.1495,0.025155,-0.094033,-0.089155,-0.015466,-0.005871,-0.135146,-0.027996,-0.044101,0.098039,0.10216,-0.114098,0.027085,-0.101855,0.121427,0.011731,-0.137597,0.114284,0.05662,0.01829,0.116274,0.129729,-0.049017,-0.07513,0.097962,-0.144671,-0.12357,-0.067518,-0.081253,0.001067,-0.025604,-0.268301,-0.105857,0.099036,-0.009189,-0.144821,0.032428,
Q155,0.034837,-0.184234,0.050972,-0.070311,-0.033401,-0.154621,0.054434,-0.090577,0.124591,0.17282,0.034626,-0.110459,-0.048773,-0.065849,-0.052249,0.090382,-0.005526,0.100573,0.017639,-0.154075,0.082847,-0.038334,-0.031193,0.294386,-0.01147,-0.160202,0.085234,-0.07019,0.069481,0.081521,-0.032974,-0.023285,0.011451,-0.010552,0.070748,-0.014401,-0.081565,-0.182862,-0.179165,0.123487,-0.065116,-0.005254,-0.022657,-0.079678,-0.083857,0.033185,-0.155199,0.199453,0.048189,-0.005358,-0.206948,0.105661,-0.101112,0.096059,0.107818,-0.029435,0.009214,-0.00291,-0.020202,-0.171666,-0.110371,0.162056,0.078422,0.179975,-0.082534,-0.077403,-0.059343,-0.160795,-0.159222,-0.154157,0.010886,-0.075544,0.147089,0.125896,-0.015561,0.003337,-0.096661,0.008677,0.046505,0.079272,0.049386,-0.142519,0.096586,-0.015985,0.056413,-0.129317,-0.08149,0.09659,-0.041209,-0.076758,-0.097803,-0.069364,-0.016785,-0.10194,-0.035244,-0.001459,0.003094,-0.031238,-0.120164,0.121461,
Q15180,-0.113812,0.003113,-0.007003,-0.08254,0.081815,-0.159194,-0.070831,-0.181713,0.122815,0.068568,0.140461,0.092989,-0.096178,0.075599,-0.240883,0.03767,-0.067594,0.045803,0.088134,-0.141243,0.026222,-0.103988,-0.070516,0.108209,0.042064,-0.159155,-0.040117,0.01595,0.178393,0.147687,-0.066168,-0.070251,0.137572,-0.0012,-0.102396,0.093044,0.04609,-0.050106,-0.161191,0.049453,-0.111995,-0.069873,0.011294,-0.109458,-0.15352,0.079816,-0.024916,0.034146,-0.039769,0.105821,-0.056993,0.102462,-0.112653,-0.067936,-0.008065,0.122079,-0.083391,-0.057312,0.066796,-0.025428,-0.086201,0.099057,0.036863,0.091057,0.012349,-0.216891,-0.067157,-0.112121,-0.105181,-0.083824,-0.130393,-0.140808,0.084215,0.167116,0.050442,-0.069912,-0.069899,0.207672,0.064706,0.072971,0.062429,-0.016612,-0.073227,0.19831,-0.024867,-0.112953,-0.081572,0.000107,0.011095,-0.184489,-0.110502,-0.065263,-0.085893,-0.088081,-0.040868,-0.152241,0.040298,-0.086355,-0.053048,0.041246,
Q408,0.030718,-0.167667,-0.032142,-0.097031,-0.009249,-0.15315,0.05493,-0.050344,0.0895,0.072373,0.046112,0.105025,-0.014505,-0.097462,-0.055535,0.04203,0.068854,0.068259,-0.056666,-0.032209,-0.132303,0.036381,-0.114954,0.1027,0.103047,-0.170943,0.071659,0.056735,0.097389,0.019026,-0.15044,-0.104731,0.135039,-0.023222,-0.031225,0.006168,-5.6e-05,-0.075368,-0.121237,0.012078,-0.004301,0.101237,0.045415,-0.150648,-0.178752,0.035189,-0.087051,0.131556,-0.024437,0.069101,-0.088314,0.076001,-0.089744,-0.019744,-0.080481,0.113036,0.071406,0.081293,-0.03692,-0.076588,-0.079588,0.035581,-0.011412,0.004562,-0.008758,-0.229959,-0.061455,-0.093791,-0.170649,-0.113619,-0.043063,-0.116568,0.009169,0.126264,-0.115451,-0.167792,-0.172078,0.159837,0.063661,0.016962,0.086715,-0.000951,0.096217,0.077636,0.080032,-0.138589,0.055755,0.162585,-0.060502,-0.044051,-0.030034,0.104155,0.055364,0.029269,-0.167047,-0.244246,0.098803,-0.007242,-0.01005,0.227449,
Q177220,-0.122441,0.115449,0.042223,-0.185575,0.059833,-0.064883,-0.072747,-0.010227,0.190765,0.179437,0.009406,0.112514,0.007218,-0.192449,-0.046813,0.073763,-0.161234,-0.169368,-0.222345,-0.091412,0.084874,0.034517,0.00563,0.011966,-0.168785,0.05936,-0.004024,-0.177113,-0.134761,0.001433,-0.055434,0.021545,0.035482,0.000395,-0.020418,-0.106061,-0.03969,-0.060576,-0.018002,-0.074563,-0.021769,0.018355,-0.122057,-0.071743,0.051854,0.060417,-0.078652,-0.117343,0.058764,0.00832,-0.029754,-0.014132,-0.087817,0.075705,-0.027814,-0.050528,0.087754,-0.019797,0.184494,-0.001983,-0.056978,0.115781,-0.083587,0.074449,-0.023477,0.182033,-0.107669,-0.00507,0.072472,-0.163026,0.018795,-0.109628,0.11118,0.123479,-0.079767,-0.035659,-0.207471,0.115562,0.088399,0.100679,-0.045368,-0.066601,-0.034042,0.024526,0.146916,-0.019644,-0.037969,-0.103611,-0.079045,0.159933,0.029875,-0.111481,-0.001127,-0.193536,0.171379,-0.137199,0.15602,-0.096122,-0.027905,0.139698,
Q38,0.070083,-0.18845,0.141631,-0.040243,0.083353,-0.066465,-0.078534,-0.091012,-0.004911,0.06986,0.014378,-0.058247,-0.023097,-0.033268,-0.23099,0.035093,0.001796,0.080134,-0.031169,-0.116003,-0.046705,-0.126805,-0.101439,0.260516,-0.054337,-0.007594,-0.06685,-0.094347,0.02415,0.061541,-0.006309,-0.015596,0.079723,0.082512,-0.106483,0.107849,-0.070602,-0.135912,-0.220677,-0.023099,0.07569,0.108237,0.046677,-0.057698,-0.211438,0.004579,0.0001,0.134227,0.067068,0.139643,-0.113321,0.005218,0.066876,-0.002806,0.02468,0.009425,0.006336,0.077383,0.047457,-0.103453,-0.112908,0.030079,-0.036201,0.166088,-0.008356,-0.106465,-0.169773,-0.044792,-0.207479,-0.08254,-0.027676,-0.099048,0.046029,0.091059,-0.051872,-0.107826,-0.083838,0.104695,0.061351,0.054021,0.049287,-0.124688,0.055393,0.096907,0.191626,-0.042969,-0.018602,0.191948,0.00938,0.016116,-0.025669,-0.065682,-0.075034,-0.100736,-0.057998,-0.078545,0.110442,-0.121222,-0.079333,0.126855,
Q752297,-0.011161,-0.049322,0.035052,-0.019086,-0.159716,0.050774,-0.002473,-0.034771,0.128676,0.083335,0.087776,-0.04524,-0.069989,0.020719,-0.04461,-0.052463,0.015911,-0.054023,-0.013801,-0.100267,-0.078705,0.162741,-0.093728,0.068073,-0.041784,0.073118,0.031355,0.009016,0.02627,0.031628,0.005379,0.148074,0.017761,-0.049465,-0.00333,0.028585,-0.051621,-0.144986,0.016909,-0.085077,0.05965,-0.034824,-0.024639,0.04355,0.041727,0.094436,-0.078023,-0.020736,-0.094696,0.155577,0.009303,-0.149155,-0.077654,0.013224,0.082539,-0.04752,0.014199,-0.02682,-0.004197,-0.076061,-0.135489,0.131666,0.00686,-0.060502,-0.074509,0.138338,-0.078703,-0.104179,-0.039388,-0.044999,0.064185,-0.040599,-0.037294,-0.029804,-0.074957,-0.093694,-0.106942,-0.067927,0.138884,0.073855,0.089394,-0.104317,0.010915,0.043192,0.008403,0.028302,-0.023799,0.077121,-0.129775,0.017188,-0.012066,0.013302,0.007995,-0.117453,-0.059301,-0.067003,0.042934,-0.133761,0.066204,0.010617,
Q29,-0.005773,-0.166473,0.052209,-0.088274,0.075827,-0.057236,0.022902,-0.143334,0.171384,0.164678,0.201774,-0.080319,0.029868,-0.082781,-0.071412,0.022286,-0.091273,0.051151,0.049357,-0.185893,0.047676,0.029299,-0.174625,0.072774,0.113172,-0.110093,0.017841,-0.124446,0.095698,0.020833,-0.151397,-0.089255,0.101966,0.07888,-0.091839,0.067304,-0.138053,-0.015724,-0.132757,0.03197,0.087367,-0.001877,0.064351,0.033793,-0.189589,0.009752,-0.0339,0.104148,0.000478,0.162717,-0.220403,0.0533,-0.073513,0.078253,0.00454,-0.039499,0.047534,-0.057056,0.037574,-0.196273,-0.218596,0.146815,0.030176,0.048222,0.001183,-0.126021,-0.128668,0.004518,-0.032442,-0.166873,-0.011354,-0.140974,0.012621,0.092878,0.062621,-0.046111,-0.143052,0.050754,-0.011495,-0.043045,-0.012869,-0.109739,0.124008,0.016745,0.177091,-0.001019,-0.128443,0.14497,-0.119753,-0.071188,-0.077402,0.027965,0.070872,-0.07664,-0.056702,-0.01913,0.015364,-0.048551,-0.079533,0.17094,
Q2807,-0.036898,-0.150758,0.03325,-0.0336,0.01734,-0.064974,0.086989,-0.120567,0.145057,0.100746,0.116794,-0.032285,0.055112,-0.109985,-0.093899,0.006484,-0.11295,0.023365,-0.039833,-0.138852,0.074295,0.129798,-0.140086,0.120461,0.099759,-0.09512,-0.029991,-0.131754,0.058696,0.040662,-0.123854,-0.126025,0.051762,-0.009305,-0.13639,0.161373,-0.178564,-0.017453,-0.123648,0.000668,0.001689,-0.11405,0.138074,0.024981,-0.174312,0.033264,-0.077099,0.077703,0.033715,0.126293,-0.315582,0.05957,0.018339,0.072178,-0.018662,-0.040181,0.031131,-0.09207,0.04057,-0.202834,-0.177004,0.094898,0.039896,0.026895,0.038131,-0.082312,-0.134013,0.002165,-0.0074,-0.140761,-0.054813,-0.130598,-0.009697,0.11158,0.032957,-0.077316,-0.103446,0.034395,-0.018408,-0.133679,0.063456,0.000898,0.06679,0.095422,0.153089,-0.097489,-0.097954,0.120143,-0.145471,-0.07554,-0.109186,0.042427,0.065537,-0.041697,-0.11759,-0.163301,0.068791,-0.090199,-0.108044,0.111972,
Q336286,0.028159,0.136965,-0.033122,-0.188614,0.149899,-0.031604,-0.131477,0.077101,0.157001,-0.007505,0.055567,0.005275,-0.117271,0.032136,-0.154789,-0.01028,-0.151941,-0.127247,0.028908,-0.061016,-0.034391,0.145242,-0.0198,-0.063947,-0.014738,-0.151373,0.091955,-0.062168,0.113189,0.14174,-0.102802,0.022653,-0.089178,0.046997,0.087328,-0.087216,-0.081042,-0.009915,-0.182872,0.041482,-0.052554,-0.073005,0.074763,0.165494,0.090656,0.127264,0.012743,-0.059,-0.033978,-0.05972,0.100829,-0.029421,-0.108429,0.010732,-0.031332,-0.175972,0.060518,-0.07353,-0.060336,0.079047,-0.151894,0.048231,-0.01511,0.169096,0.076873,-0.025646,-0.19082,-0.139787,-0.148281,-0.150028,-0.032014,0.064651,0.05204,-0.184898,0.178655,-0.011684,-0.077669,-0.167897,0.150694,0.009206,-0.083173,0.039836,0.059297,0.094952,0.170243,-0.038064,-0.01236,-0.03623,-0.046988,-0.126792,-0.024412,-0.199027,-0.185853,0.048109,0.097227,-0.047347,-0.007836,-0.038131,0.035074,-0.052913,
Q33506,0.029741,-0.063469,0.059689,-0.025662,-0.038648,-0.040284,-0.058808,0.032202,0.016658,-0.040813,0.082319,0.082236,-0.106074,-0.166177,-0.051378,-0.089519,-0.031392,-0.097203,0.064177,0.089722,-0.043217,0.05845,-0.080683,0.09405,-0.048715,0.081641,-0.066161,-0.072188,0.06648,0.041635,-0.193426,0.043337,0.195271,0.058424,-0.032666,-0.028566,0.01536,-0.101713,-0.10167,0.032046,0.03279,0.010274,-0.03862,0.01677,-0.079634,0.057086,0.067627,0.054938,-0.060027,0.004681,0.021193,0.099808,0.029237,0.053107,0.064418,-0.139178,0.0361,0.036432,0.038278,-0.184764,-0.105017,0.080876,-0.100028,0.063181,-0.002398,0.060541,-0.032882,0.017555,-0.027929,-0.021457,-0.005784,-0.00119,0.101625,0.140954,0.100602,-0.013179,-0.066039,-0.104488,0.090226,0.044881,0.024521,-0.037449,-0.012689,0.073141,-0.074935,-0.101611,-0.099725,0.077741,-0.048543,-0.04059,-0.140118,-0.091084,-0.11918,-0.134443,0.064518,0.007497,0.050744,-0.134204,-0.057212,-0.054932,
Q37226,-0.180374,0.009042,-0.075288,-0.094787,0.102924,-0.069842,-0.012934,0.116866,0.009796,0.025673,0.117324,-0.034994,-0.126627,-0.096407,-0.115039,0.047081,-0.133042,-0.086375,-0.140241,-0.166574,-0.134451,0.082154,-0.148351,0.058406,-0.096214,0.061325,-0.061016,-0.116148,0.063763,0.066057,0.110474,0.02278,0.03197,0.0057,0.001514,-0.088542,-0.106845,-0.112084,0.081652,-0.072311,0.053096,-0.133088,-0.046729,-0.084755,0.055552,-0.008757,0.136811,-0.157504,-0.018902,0.010897,-0.065491,-0.088169,-0.013046,-0.076779,0.073264,-0.079629,0.039857,0.02778,0.026128,-0.082532,-0.038757,-0.061679,0.046101,-0.042024,-0.034555,0.147315,-0.064394,0.08705,0.126181,-0.157444,0.115057,-0.080308,0.079089,0.050778,0.027858,0.002927,-0.065316,0.041885,0.097578,0.120851,-0.040125,-0.170919,-0.161311,0.096339,-0.016818,-0.117878,-0.054163,0.091611,-0.076817,-0.037135,-0.123229,0.026806,-0.135,-0.047965,-0.014139,-0.07283,0.025859,-0.083089,0.077891,-0.035627,
Q213,-0.052516,-0.089791,0.07205,-0.063529,-0.040866,-0.061481,-0.15265,-0.161991,-0.02054,0.017232,0.004995,-0.057034,-0.091704,-0.021554,-0.044174,-0.048051,-0.107458,0.10382,0.087723,-0.072489,0.072895,-0.186057,-0.151223,0.164703,-0.070884,-0.160364,-0.013271,-0.096412,0.084015,0.160806,-0.014156,-0.004336,0.041076,0.004463,0.011241,0.107486,-0.101791,-0.002903,-0.142435,-0.018905,-0.064036,-0.008134,-0.003872,0.030841,-0.146494,-0.039708,-0.109617,0.151937,0.018942,0.039616,-0.136249,0.13238,-0.0533,-0.071638,-0.047991,0.088513,-0.017328,-0.007115,0.140526,-0.16937,-0.144059,0.078841,0.009353,0.041827,0.063986,-0.15198,-0.136525,0.000226,-0.193363,-0.055675,-0.129121,-0.069383,-0.010326,0.021117,-0.110253,-0.043654,-0.127988,0.163993,0.129533,0.162591,0.062193,-0.151229,0.167523,-0.055142,0.14441,-0.06633,0.072374,0.165239,-0.042525,-0.097987,-0.12847,-0.023693,0.157777,-0.118191,-0.097655,-0.130246,0.125737,-0.14088,-0.084927,0.081427,
Q90,0.028043,0.016425,0.120711,-0.077151,0.013496,-0.145984,0.0605,-0.178565,0.107831,0.063568,0.047844,0.021106,0.082673,-0.118698,-0.129769,-0.007412,0.016197,-0.021717,-0.084221,-0.103912,0.035517,0.0081,-0.045755,0.122,-0.038928,0.047186,-0.093751,-0.127872,0.134687,0.047067,-0.112553,0.045341,0.102452,-0.023489,-0.141248,0.164233,-0.165219,-0.040183,-0.1501,-0.005917,-0.125284,-0.021691,-0.00732,0.006832,-0.133392,0.037509,0.023012,-0.020896,-0.016064,0.021833,-0.33551,0.04766,0.104188,0.02678,0.033784,0.075586,-0.009095,-0.073498,0.107506,-0.098113,-0.113158,0.041247,0.063066,0.00461,-0.005955,-0.202187,-0.09909,-0.023529,-0.102884,-0.165994,-0.069441,-0.131318,0.030198,0.0504,0.02825,0.003002,-0.094317,0.045536,0.159501,-0.050324,-0.03155,0.053056,-0.048881,0.102368,0.044592,-0.15442,-0.068317,0.10969,-0.131738,-0.119634,-0.012271,0.065763,-0.02512,-0.125539,-0.131428,-0.164142,0.053207,-0.106591,-0.14449,0.100386,
Q11424,-0.166153,-0.213444,-0.035954,-0.061192,0.108587,-0.172526,-0.079536,0.028447,-0.004821,0.093087,-0.089477,0.13958,-0.002007,-0.142193,-0.064991,0.057078,-0.020226,-0.036513,0.157216,0.003419,-0.16704,0.107759,-0.099835,0.154924,-0.043952,0.0765,-0.119602,0.0253,0.104654,-0.038396,-0.139168,0.018847,0.112657,-0.084272,0.131829,0.03988,0.008854,0.034703,-0.1445,0.008076,0.196718,-0.109784,0.107188,-0.002613,-0.159141,-0.01259,0.137381,-0.091134,0.023928,-0.056041,-0.133387,0.041902,-0.08918,-0.021308,0.095231,-0.111096,-0.024893,0.166479,0.039162,-0.149895,-0.124943,0.022398,0.019739,0.016889,-0.099562,0.097829,-0.06818,0.202446,0.124785,-0.058427,0.148463,0.153047,-0.025122,0.118052,0.144982,0.121551,-0.079607,0.027572,0.056639,0.031348,-0.11519,-0.063761,-0.057671,0.037446,-0.135814,0.018725,-0.030938,0.193047,-0.00675,-0.040257,-0.08265,-0.073149,-0.116259,-0.116902,-0.069681,-0.080121,0.035752,-0.001927,0.097608,-0.148277,
Q25089,-0.033586,-0.039048,0.062833,0.060906,-0.037508,-0.014286,0.0557,-0.018874,0.040108,-0.028495,0.076004,0.021017,0.009352,-0.047357,0.021653,-0.071636,-0.014056,0.067851,-0.013396,0.003888,-0.023237,-0.115561,0.058097,-0.031417,-0.060033,-0.092117,0.01277,0.014192,0.019487,-0.041341,-0.063682,0.062157,0.094423,0.030288,-0.051659,-0.00392,-0.0523,-0.001951,-0.046981,-0.074922,-0.081423,0.067426,-0.060591,-0.037178,-0.111477,-0.002621,-0.016375,0.018355,-0.072764,-0.029315,-0.025538,-0.048784,0.037983,0.068273,0.023631,0.055606,0.035399,0.008217,-0.094288,-0.045437,0.054983,-0.060745,-0.00923,0.039646,0.085042,0.059496,0.007401,-0.032206,0.044717,0.040832,-0.061675,0.093022,0.032564,-0.034968,-0.046514,-0.006661,0.043092,0.059982,0.011335,0.09345,0.09635,-0.019286,0.041587,0.054184,0.064098,-0.050959,0.067052,-0.038194,-0.056021,-0.036138,0.06746,0.088719,0.055568,0.078843,0.081211,-0.005256,-0.048473,-0.059912,0.015307,0.054609,
Q19877770,0.010476,0.027666,0.057793,0.026382,-0.03014,-0.00767,-0.008668,-0.020998,0.085048,-0.046826,0.037305,-0.006914,0.04449,0.013083,-0.003454,-0.070093,0.007744,0.095433,-0.058636,-0.040728,-0.007661,-0.089441,0.043153,-0.030083,-0.019219,-0.04128,-0.002432,-0.040478,0.034752,-0.016117,0.002871,0.087131,0.113809,-0.001022,-0.076956,-0.043331,-0.00095,0.010564,0.003847,-0.071507,-0.089563,0.08717,-0.092666,-0.052321,-0.117444,0.00826,-0.021537,0.010537,0.003769,-0.092985,0.035567,-0.072102,0.020628,0.061756,0.038224,0.091206,0.026553,0.008653,-0.063618,0.038541,0.02612,-0.053665,0.009036,-0.003722,0.096698,0.077995,0.056829,-0.034385,0.034735,0.059531,-0.059725,-0.033605,0.003707,-0.016724,0.031989,0.050862,0.11398,-0.039413,0.041911,0.060571,-0.024959,0.007216,-0.022581,0.030851,0.042075,-0.055242,0.052361,-0.041742,0.00583,0.004089,0.079804,0.085663,0.034351,0.095861,0.073473,-0.013102,-0.087919,-0.038402,0.0017,0.023184,
Q160432,0.003948,0.052296,0.032235,0.037092,-0.017206,-0.073959,-0.013601,0.001315,0.072061,0.020307,-0.014156,-0.007892,-0.037855,-0.031264,0.001074,-0.057942,-0.024538,0.041299,0.046235,0.000331,0.008801,-0.050537,0.04889,-0.071101,-0.048759,-0.112174,0.067288,-0.05083,0.049509,0.026992,-0.054853,0.043723,0.068314,0.044266,-0.086538,-0.024787,0.003225,-0.057365,-0.03307,-0.082474,-0.052199,0.090515,-0.093849,-0.018862,-0.121005,0.077195,-0.067035,0.009791,0.037131,-0.078584,0.070577,-0.045991,0.012504,0.073742,0.01379,0.059859,0.066111,0.000277,-0.070813,-0.003079,0.079766,-0.101554,0.027535,0.035506,0.103749,0.026481,0.062669,-0.053291,0.004406,0.062355,-0.034546,-0.033046,-0.016191,-0.048449,-0.018668,-0.031423,0.051297,-0.029908,-0.006167,0.039815,0.109182,0.064289,0.065886,0.01599,0.050676,-0.076629,0.039767,-0.063844,-0.011716,0.030294,0.052719,0.081259,0.072236,0.099917,0.024384,-0.014348,0.007931,-0.067671,0.018587,0.017226,
Q228943,-0.008548,0.031179,0.064334,0.088161,-0.042663,-0.014934,0.071932,0.018508,0.053793,-0.019097,0.028968,0.002545,0.014603,-0.005869,0.014865,0.030927,-0.0119,-0.000518,-0.009037,0.005958,-0.005639,-0.083119,0.074338,-0.054728,0.001249,-0.040089,0.060852,-0.043454,0.029293,0.03018,0.028402,0.029817,0.067686,-0.007399,-0.058792,-0.048838,0.000217,-0.022753,0.036531,-0.056082,-0.059239,0.109366,-0.055748,-0.008136,-0.02848,-0.034124,-0.061372,0.07766,0.075578,-0.040803,0.026933,-0.090455,0.032189,0.059791,0.024408,0.059623,0.050174,-0.027381,-0.080284,0.037472,0.100361,-0.09309,0.010706,0.029907,0.102496,0.083744,0.050203,-0.05668,0.036374,-0.002769,-0.057132,-0.023202,0.015839,-0.022336,-0.014384,-0.042538,0.055942,0.070461,-0.014309,0.087956,0.077318,0.006542,0.058299,0.041072,0.012784,-0.044051,-0.001013,-0.090166,-0.029902,0.095452,0.072098,0.106341,0.057835,0.087434,0.003932,-0.027025,0.002303,-0.043928,-0.023794,-0.022103,
Q83287,-0.010922,0.033473,0.049758,0.051853,0.003647,0.036189,0.047936,0.024078,0.082502,-0.007714,0.009372,0.033386,0.034919,-0.047097,0.062592,-0.03766,-0.003102,-0.01178,0.002759,-0.016186,0.018213,-0.104413,0.058977,-0.099749,-0.010716,-0.074154,0.056354,-0.030149,-0.00537,-0.047155,-0.056318,0.031651,0.088351,0.046254,-0.101188,-0.005066,-0.042449,0.029427,0.027234,-0.062909,-0.05844,0.083409,-0.070197,0.025573,-0.087365,-0.015261,-0.081933,0.033511,-0.015028,-0.037683,-0.010494,0.003045,0.019466,0.076352,0.000313,0.031876,0.015255,-0.002595,-0.100619,0.052672,0.10035,-0.02278,0.020696,0.01753,0.104484,0.069428,0.011522,-0.066546,0.050104,-0.041691,-0.077997,0.063693,0.021962,-0.000567,0.015317,0.022815,0.016529,-0.016122,-0.019131,0.048307,0.094303,-0.004287,0.043818,0.058325,0.072471,-0.002735,-0.03192,-0.081055,-0.06598,0.055252,0.102188,0.083919,0.05069,0.082167,0.08817,0.060193,0.014828,-0.010446,-0.00892,-0.00212,
Q1384,-0.00539,-0.134071,0.132443,-0.045339,-0.108497,-0.161658,0.039728,-0.104369,0.081316,0.115606,0.160402,0.05639,-0.007218,-0.106729,-0.160836,-0.010461,-0.021244,-0.012879,-0.045424,0.001082,-0.153904,0.044319,0.006576,0.054002,0.067628,-0.069419,-0.024462,-0.009978,0.113087,0.043819,-0.087564,0.025369,0.035828,-0.118629,-0.024116,0.056242,-0.140341,-0.107947,-0.063414,0.102165,-0.104423,0.199375,0.004554,-0.147161,-0.232282,-0.095781,-0.094144,0.084924,-0.015618,0.093539,-0.240764,-0.025564,0.142982,0.004175,-0.016857,0.009112,0.04071,-0.031461,0.01389,-0.076036,-0.06928,0.149529,0.080861,0.011351,0.051482,-0.157821,-0.161899,-0.155061,0.019584,-0.140274,-0.130203,0.007544,0.163233,0.103632,-0.100711,-0.00514,0.013039,0.148564,0.004258,0.01418,0.033301,-0.072769,-0.058898,0.14845,0.118875,-0.010218,-0.030399,0.102737,-0.124833,-0.116353,-0.093201,0.061653,-0.008727,-0.033909,-0.230787,-0.12795,0.006912,-0.105455,0.005361,0.177442,
Q145,-0.059625,-0.008732,0.041473,-0.018908,-0.069631,-0.159485,-0.062919,-0.023891,-0.03356,0.176615,0.014475,0.025822,-0.096588,-0.073731,-0.228901,-0.079301,-0.015692,-0.0127,0.100228,-0.147078,-0.016665,0.050498,0.012957,0.05499,-0.063944,-0.156085,0.062835,-0.071542,0.146168,0.038715,-0.146391,-0.072211,0.092616,0.034126,-0.091569,-0.067093,-0.046274,-0.190221,-0.15738,0.141692,0.00465,0.122663,-0.110746,-0.088843,-0.2084,0.062071,-0.117158,0.07713,0.050687,0.138024,-0.076967,0.123897,0.008769,0.03338,0.028408,0.117073,0.065897,0.068405,0.023166,-0.141862,-0.083282,0.020176,0.12049,0.141667,0.056365,-0.230988,-0.079196,-0.134937,-0.192916,-0.025598,-0.072861,-0.174364,-0.024612,-0.021473,0.01254,-0.081932,-0.164982,0.063165,0.064947,-0.003662,0.049587,0.016911,0.043132,0.106828,0.074098,-0.107238,-0.035673,0.122691,-0.142286,-0.047365,-0.100674,0.072272,0.121631,0.008287,-0.176996,-0.160318,0.050546,0.00882,0.062849,0.141395,
Q62,-0.011272,-0.143593,0.07294,-0.084453,-0.129567,-0.162982,0.075716,-0.117122,0.150021,0.054164,0.118249,0.130284,0.112831,-0.049553,-0.086286,-0.044588,-0.022884,0.014516,-0.065727,-0.029625,-0.144138,0.014324,0.008172,0.050599,0.049722,-0.04001,0.000818,0.017092,0.132137,0.09205,-0.005128,-0.019526,0.081419,-0.065532,-0.031831,0.025744,-0.137048,-0.14329,-0.099544,0.049221,-0.107393,0.024521,-0.030444,-0.021382,-0.14608,-0.104085,-0.102237,0.124758,0.035577,0.066265,-0.193306,-0.024702,0.074085,0.070579,0.016071,0.058771,-0.023429,-0.021831,0.031434,-0.136279,-0.124434,0.135134,0.024867,0.12674,0.021801,-0.145073,-0.121467,-0.056483,-0.044858,-0.026511,-0.159459,-0.173012,0.146045,0.135503,-0.157361,-0.070947,-0.008668,0.176786,-0.008494,0.018362,0.014116,0.007141,0.02047,0.130804,0.117951,-0.015505,0.023039,-0.014635,-0.126293,-0.085676,-0.095184,0.09972,-0.024669,-0.065684,-0.097526,-0.128599,0.080512,-0.13062,-0.036895,0.095577,
Q5083,-0.079932,-0.113647,0.077267,-0.059618,-0.099957,-0.199323,0.034327,-0.087957,0.106116,0.075472,0.083066,0.103972,0.139988,0.061299,-0.173422,-0.017678,-0.013962,-0.106014,0.023954,-0.044878,-0.135605,0.074159,-0.033763,0.057845,0.070007,-0.094878,0.014387,0.060448,0.088285,0.095821,-0.071818,0.002525,0.054983,-0.150151,-0.004441,0.056681,-0.100778,-0.150948,-0.055914,0.043004,-0.151146,-0.058841,-0.039602,0.041985,-0.087593,-0.079855,-0.119512,0.09989,0.075692,0.11527,-0.123564,-0.013177,0.057069,0.056515,-0.019342,0.080799,-0.056903,-0.043187,0.019069,-0.048035,-0.087999,0.155213,0.033952,0.099184,0.04282,-0.108851,-0.038584,-0.057024,-0.075316,-0.100498,-0.166235,-0.060306,0.116321,0.067917,-0.1452,-0.001738,-0.052289,0.130083,0.034898,0.025055,0.053291,0.124448,0.011837,0.148586,0.090636,0.010323,-0.003172,-0.001772,-0.110301,-0.024512,-0.033214,0.119514,0.061385,-0.134915,-0.112268,-0.107359,0.076031,-0.08765,-0.081907,0.079999,
Q1085,-0.039321,-0.132676,0.098746,-0.020886,-0.097114,-0.051806,-0.000948,-0.156941,-0.024445,0.035566,-0.057633,-0.040211,-0.044063,-0.065531,-0.09795,-0.027498,-0.131315,0.020826,-0.000752,0.012369,0.040405,-0.002473,-0.124269,0.048398,-0.047764,-0.116932,0.049581,-0.084729,0.046654,0.159973,0.031278,0.021184,0.014424,-0.052993,-0.058143,0.17947,-0.135839,-0.019804,-0.128584,0.025457,-0.155649,-0.124801,0.039233,0.01931,-0.109394,-0.060701,-0.1224,0.130557,-0.038171,0.028401,-0.190421,0.118082,-0.027775,-0.095273,-0.106888,0.078214,-0.037488,-0.066219,0.140538,-0.193216,-0.100245,0.072682,-0.023348,0.007114,0.048063,-0.154542,-0.134641,-0.021346,-0.125729,-0.057907,-0.151631,-0.073149,-0.023884,0.045418,-0.138656,-0.022758,-0.072023,0.16859,0.111104,0.01824,0.100222,0.029005,-0.063089,-0.01305,0.063918,-0.040618,0.040133,0.130854,-0.081506,-0.076766,-0.154704,-0.001307,0.107403,-0.101571,-0.155261,-0.11215,0.133966,-0.146245,-0.109595,0.054934,
Q175621,0.078051,-0.209143,0.108318,-0.146697,0.102057,-0.059935,-0.014172,-0.06877,0.004205,0.148236,0.024301,-0.001856,-0.113527,-0.032758,-0.1767,-0.120146,0.048832,0.116681,0.120078,-0.037744,-0.143145,0.062669,-0.039113,0.057083,-0.134406,-0.178048,0.091564,-0.043503,-0.055825,0.06173,-0.03974,-0.027734,0.079052,-0.077831,-0.093823,-0.106479,-0.102414,-0.07588,-0.149116,-0.014925,-0.129118,-0.002052,-0.030217,0.065533,-0.028758,0.150924,-0.02672,0.067503,-0.06816,0.022415,-0.087786,-0.066536,0.005507,0.053438,0.097535,0.016145,-0.044119,-0.029537,-0.014507,0.012662,-0.020799,0.125428,-0.014957,0.127888,-0.143572,0.000787,-0.118195,-0.027512,0.150294,-0.07,-0.028057,-0.132448,0.008229,-0.00289,-0.157966,-0.060043,-0.030194,0.061024,0.010293,0.024512,0.046783,-0.053734,0.086482,0.105418,0.066983,-0.074797,0.129216,-0.009829,0.006913,0.074824,-0.016424,0.00159,-0.003584,0.001714,-0.011748,-0.040184,0.013734,-0.180455,-0.031091,-0.147427,
Q174,0.050896,-0.159029,0.04755,0.010206,-0.064317,-0.163027,0.125717,-0.070203,0.031416,0.143178,-0.026402,-0.064539,-0.017542,-0.098792,-0.081195,0.087876,-0.064234,0.069656,-0.041784,-0.136661,0.060837,0.102543,-0.006308,0.109857,-0.008012,-0.114372,0.092828,-0.04702,0.044564,0.10081,0.013053,-0.035469,-0.035892,-0.070284,0.009683,0.061356,-0.097257,-0.141185,-0.135345,0.069184,-0.105437,0.042987,-0.004361,-0.06964,-0.081644,0.028805,-0.119684,0.167053,0.069105,0.032135,-0.284196,0.105765,-0.049146,0.061532,0.135203,-0.061354,0.02343,-0.063685,-0.012701,-0.176659,-0.080694,0.154309,0.039801,0.140769,-0.035419,-0.051866,-0.029121,-0.131379,-0.123289,-0.12286,-0.010153,-0.071051,0.121165,0.113443,-0.085008,0.015585,-0.079237,0.102035,0.0096,0.014288,0.071903,-0.008673,0.072195,0.087639,0.05042,-0.116151,-0.064467,0.10685,-0.064387,-0.071814,-0.116306,-0.070771,-0.035378,-0.108601,-0.086438,-0.031455,0.069006,-0.021643,-0.138636,0.064363,
Q128581,0.049746,0.066022,0.108165,-0.02113,0.024913,-0.026208,0.02408,-0.151649,-0.013765,0.120876,0.057984,0.048398,-0.002965,-0.05334,-0.141943,-0.00461,-0.056868,0.015895,0.032454,-0.077783,-0.050991,-0.028653,6e-05,0.035285,-0.016982,-0.115708,-0.052486,-0.066289,-0.000929,0.008493,-0.042664,0.043252,0.167702,-0.082253,0.005917,-0.068437,0.048836,-0.059297,-0.135723,-0.026992,-0.143801,0.085135,0.004474,0.090283,-0.111901,0.019112,-0.08286,0.011397,0.0499,0.057704,-0.08036,-0.03458,0.005645,0.096201,0.047981,0.022829,0.062137,-0.055808,0.04535,-0.014835,-0.028664,0.018099,-0.024245,0.038126,-0.035397,-0.035154,-0.032387,0.013639,0.17845,0.004611,0.055454,-0.07248,0.046758,0.051902,0.021806,-0.063729,-0.173859,0.139611,0.038583,0.04935,0.074006,-0.038502,-0.036831,0.052381,0.042183,-0.15025,0.101928,0.034665,-0.053055,-0.015044,-0.046892,0.03046,0.049709,-0.043166,-0.035379,-0.016834,0.131305,-0.166215,0.097158,0.015246,
Q337585,0.03968,0.013132,0.023667,-0.025335,0.044934,-0.03917,0.062528,0.007286,0.001763,0.081177,0.012268,0.033095,0.006293,0.015956,-0.091917,0.033699,-0.055298,0.060094,0.025819,-0.067517,-0.043424,0.022478,0.00295,0.055677,-0.022197,-0.029091,0.001747,-0.032477,0.02588,0.030018,0.036867,-0.037099,0.02536,-0.017243,-0.000367,-0.040698,0.039543,-0.04849,0.029547,0.014912,-0.108841,0.023297,-0.04796,0.064193,0.015355,-0.021844,-0.023427,0.031215,-0.029203,0.020623,-0.030469,-0.045731,0.000413,0.074071,-0.013423,0.014888,0.064876,0.012444,-0.000144,-0.003427,-0.006218,0.010131,0.044055,0.040991,-0.046974,-0.059146,-0.035174,0.018757,0.006723,0.016694,0.017811,-0.024827,0.015294,0.038618,-0.023398,-0.009187,-0.032755,0.054952,0.032168,0.002258,0.105507,-0.007822,-0.04702,0.007031,-0.011198,-0.0966,0.043336,0.024775,0.028798,0.007635,-0.032142,-0.024238,0.005777,-0.036965,0.04831,-0.00715,0.053192,-0.036596,0.092904,-0.018834,
Q33,-0.080682,-0.145228,0.0668,-0.029954,0.018691,-0.15177,-0.07849,-0.161835,-0.002182,0.060755,0.019456,0.032687,0.024165,-0.066258,-0.031357,-0.075461,-0.048182,0.057226,0.1001,-0.172107,0.047223,-0.119463,-0.14388,0.275786,0.085236,-0.023965,0.053698,-0.082129,0.116759,0.104196,-0.104459,0.063871,0.113942,-0.038695,-0.002741,0.056361,0.022789,-0.119106,-0.152339,0.092205,-0.040168,0.024594,0.057784,0.052263,-0.148822,0.086025,-0.097875,0.149933,0.061954,-0.034819,-0.23319,-0.045487,-0.089148,0.019617,0.026751,0.023336,-0.057799,0.059624,0.072403,-0.162809,-0.028255,0.149708,0.020321,0.11908,-0.122214,-0.066723,-0.154117,-0.152033,-0.129829,-0.120924,0.037756,-0.089105,0.050801,0.056504,-0.121939,-0.079465,-0.025157,0.185286,0.072012,0.08863,0.057734,-0.136504,0.176968,0.088408,-0.011963,-0.064144,-0.047188,0.076381,0.01731,-0.162435,-0.049524,0.01307,0.064148,-0.113552,0.009358,-0.258418,0.095019,-0.001529,-0.092155,0.047749,
Q193592,0.038017,0.119105,0.071829,-0.187215,0.178345,-0.056032,-0.148494,0.074154,0.178762,0.055705,0.096053,0.03135,-0.034212,0.095583,-0.166531,0.078168,-0.046568,-0.146471,0.016224,-0.153019,0.038494,0.034133,-0.077813,-0.003643,-0.046184,-0.149773,0.053888,0.018535,0.052723,0.227166,-0.045748,-0.006286,-0.166811,0.113687,0.048822,0.000469,-0.052487,0.010869,-0.115583,0.002188,0.01066,-0.065164,0.128885,0.032274,0.094395,0.001408,0.011229,-0.070654,-0.058425,-0.127063,0.186583,0.020325,-0.143547,-0.014812,-0.016729,-0.2101,0.083355,-0.06297,0.012299,0.024129,-0.200711,-0.046449,-0.038364,0.147108,0.102076,-0.033018,-0.098237,-0.08506,-0.161757,-0.11916,0.107272,-0.002427,0.022572,-0.12107,0.12983,-0.088255,-0.180455,-0.027551,0.149332,-0.078059,-0.137771,0.024293,0.078801,-0.006615,0.05308,0.033461,0.093395,0.084957,-0.07964,-0.076635,-0.016257,-0.220219,-0.182374,0.048014,0.105201,-0.052882,0.055447,-0.097575,-0.009728,-0.055862,
Q1757,-0.111876,-0.138889,0.053273,0.031191,-0.000771,-0.145206,0.015402,-0.129074,-0.003269,0.023329,-0.066307,0.0412,0.063823,-0.101917,-0.035329,-0.053347,-0.088244,0.014185,0.091558,-0.13369,0.051321,0.016499,-0.125595,0.149372,0.068733,0.029799,0.071178,-0.084335,0.102351,0.06886,-0.052786,0.05095,0.077856,-0.092752,-0.066047,0.148221,-0.037346,-0.102084,-0.056133,0.053114,-0.132221,-0.099042,0.128374,0.072862,-0.135047,0.078077,-0.088018,0.138896,0.098803,0.028557,-0.300821,-0.028167,-0.031559,-0.003543,-0.036957,0.010697,-0.077303,-0.001723,0.049426,-0.180183,-0.01062,0.136236,0.002289,0.095639,-0.114553,-0.045284,-0.128441,-0.137493,-0.101919,-0.126747,-0.025411,-0.063889,0.018936,0.047101,-0.156819,-0.067293,-0.010592,0.187693,0.031128,-0.022831,0.077644,-0.001731,0.073008,0.066204,-0.045599,-0.049741,-0.046093,0.017054,-0.050244,-0.171863,-0.144522,0.036298,0.070967,-0.112525,-0.101817,-0.255258,0.098689,0.004133,-0.140505,-0.010121,
Q9617,0.031397,0.108183,0.020704,-0.046758,-0.017903,0.11203,-0.015791,-0.026448,-0.0495,0.054463,0.002303,0.087677,-0.063758,-0.062867,-0.090364,-0.083946,-0.011946,0.015113,0.035379,-0.091366,-0.114672,0.007574,0.059925,-0.198437,-0.044749,-0.099077,0.071697,-0.059461,0.03766,0.063028,-0.098978,-0.017052,0.014139,0.006117,-0.059647,-0.06694,-0.07836,-0.056525,-0.07616,0.131283,-0.021112,0.015597,0.03209,0.096316,-0.062219,0.048557,0.051663,-0.000646,-0.049074,0.11971,-0.111071,0.055045,0.046535,0.074286,0.021351,0.018486,0.047184,-0.015156,-0.069231,-0.033545,0.035147,0.031607,-0.00778,0.014223,0.047503,-0.053409,0.006516,-0.107861,-0.066038,-0.05215,-0.021728,0.081743,-0.081443,-0.002706,0.011677,-0.170516,-0.081046,-0.079518,0.060098,0.080733,-0.004658,-0.037753,-0.047366,-0.035512,0.08102,-0.104486,-0.000621,-0.074754,0.055838,-0.073481,-0.019042,0.019883,-0.031676,0.022775,0.128112,-0.066866,0.08725,0.082996,-0.039377,-0.0133,
Q9592,0.054566,-0.116756,0.024069,-0.061784,-0.018184,0.136631,-0.081123,-0.025253,-0.18669,0.080185,0.139126,0.097434,-0.032777,-0.136944,-0.095609,-0.018549,-0.179228,-0.026013,0.004926,0.15668,-0.056608,-0.018694,-0.035892,0.181305,-0.131917,-0.006403,-0.142691,-0.070906,0.003042,-0.135852,-0.160178,0.040396,0.080943,-0.060662,-0.072315,0.111045,-0.11652,-0.07659,-0.249323,-0.023283,-0.037529,0.00728,-0.031712,0.1225,-0.026212,0.084606,-0.035468,-0.00463,-0.038483,0.015421,-0.132779,-0.012749,-0.012351,0.04339,0.04124,-0.021737,-0.026081,-0.050737,-0.060607,0.006073,-0.29176,0.098988,-0.043635,0.099885,-0.049601,-0.007607,-0.147167,0.17416,-0.011999,-0.193284,0.049077,-0.032438,0.021412,0.219803,-0.062736,-0.176648,-0.083837,0.001367,0.117998,0.067668,-0.104555,-0.099419,0.026491,-0.024713,0.195666,-0.013508,0.061869,0.046548,0.057671,0.067965,0.114556,-0.081628,-0.020081,-0.093759,-0.092796,-0.098122,0.054733,-0.027421,0.100768,-0.011098,
Q31,-0.015339,-0.063856,0.149489,-0.048174,0.05971,-0.106277,-0.097004,-0.148503,0.188304,0.183917,0.107921,0.029347,-0.029354,-0.028117,-0.052045,-0.076752,0.07546,0.025216,0.11179,-0.019809,0.041139,-0.147022,-0.144053,0.10969,0.037644,-0.067684,0.035044,0.034455,0.158446,0.0355,-0.159402,-0.081017,0.13114,0.012975,0.017105,0.053274,-0.12535,-0.019563,-0.198487,0.160483,-0.080995,0.106574,-0.013194,0.054184,-0.093814,-0.003617,-0.030394,0.057442,0.030563,0.157127,-0.242268,0.09648,0.07195,-0.002686,-0.090947,0.019404,0.087169,0.030106,-0.001213,-0.136769,-0.092301,0.094105,-0.053163,0.168348,-0.116716,-0.107326,-0.060152,0.028364,-0.162658,-0.106253,-0.054621,-0.158027,0.022465,0.001488,-0.074346,-0.028671,-0.076442,0.033692,0.147343,-0.010731,-0.060966,-0.116571,0.076088,0.100776,0.07535,-0.050919,-0.09739,0.197866,-0.149778,-0.092977,-0.011453,-0.03084,-0.083677,-0.161704,-0.091015,-0.047048,0.104624,-0.119916,-0.117743,0.03712,
Q11513337,-0.150753,-0.050311,-0.062309,-0.149528,0.095281,-0.176922,-0.204032,0.122752,0.152931,0.117656,0.038684,0.117111,-0.125584,-0.159589,-0.211694,0.046367,-0.036554,-0.086743,-0.151169,-0.123541,-0.115463,0.226143,-0.127824,0.028734,0.025485,0.002574,-0.053725,0.010725,-0.094622,0.163975,0.078769,0.099186,0.015501,-0.156167,0.027812,-0.021629,-0.074418,-0.012377,0.086824,-0.020872,-0.001065,-0.068073,0.04056,0.058006,-0.123185,0.018394,0.05525,-0.159478,-0.014762,0.026003,0.044563,-0.132801,0.015847,-0.088278,0.096971,-0.085127,-0.079508,0.035131,0.098949,0.002447,-0.01122,0.096676,0.020045,-0.04063,-0.193992,0.114167,-0.096984,0.044817,0.005119,0.011232,0.048892,-0.100527,0.144573,0.072765,0.030092,-0.104282,-0.204233,0.037348,0.01426,0.102218,0.004752,-0.146779,0.032206,-0.106583,0.01176,-0.117268,0.007626,0.04832,-0.074883,0.155735,-0.045517,-0.054033,-0.034167,-0.168337,0.135298,-0.167935,0.156475,0.060214,0.04055,0.045038,
Q8420,0.009765,0.06461,-0.087251,0.040737,0.024734,0.063934,0.01646,-0.028422,-0.058741,0.065058,0.133356,0.007195,-0.033318,0.086026,-0.002224,0.076871,0.093854,-0.026121,0.082085,0.056738,-0.006799,0.005176,0.012454,0.070243,0.007885,0.074464,0.052694,-0.060938,-0.087835,0.158682,0.067387,-0.050766,-0.086042,-0.032949,0.000553,0.022265,-0.131596,0.052645,0.018652,0.013342,-0.071569,-0.076979,0.164914,-0.068855,0.089371,-0.080518,0.046121,-0.053255,-0.021516,0.12218,0.060066,0.029354,-0.105889,-0.020127,0.02862,0.055152,0.021466,-0.01992,0.040806,0.158994,-0.046127,0.034498,-0.07841,0.0104,-0.13055,0.106701,-0.137467,-0.010914,0.085338,-0.061875,-0.00793,-0.081357,0.115852,0.068221,-0.121518,0.075631,-0.009842,-0.1003,-0.062206,-0.080732,-0.095019,-0.068445,-0.078876,0.031684,-0.012769,-0.037117,-0.011873,0.096944,0.051229,0.004134,0.02403,0.055453,0.021265,0.075341,0.073576,-0.116217,-0.004944,0.004911,-0.007639,0.06782,
