P21,-0.078436,0.108589,-0.049429,-0.131355,0.0493,-0.094605,-0.101469,0.127802,-0.081245,0.113759,-0.171865,0.049044,0.141462,0.117907,0.040574,-0.057788,-0.146715,-0.085228,0.020211,-0.12101,-0.100422,-0.081288,0.031696,-0.060593,-0.072303,0.139442,-0.133374,-0.120222,0.0504,0.119134,-0.082276,0.050498,-0.108097,0.045905,0.118079,0.069211,-0.049801,-0.106901,0.133158,-0.065444,-0.085254,0.040706,0.007894,0.034556,0.139081,0.025119,0.122081,0.154464,0.099593,-0.0404,0.075233,0.096659,0.032061,-0.154013,0.085069,-0.144027,-0.06937,0.079479,0.090121,-0.154897,-0.12734,-0.031645,-0.09384,0.123652,-0.134066,0.066089,-0.159245,0.069276,0.074938,-0.129573,0.076426,-0.144846,0.147408,0.106457,-0.079138,0.081598,-0.132508,0.102217,0.117162,-0.064613,-0.120491,-0.075478,0.013671,-0.056833,0.086815,-0.111679,0.05102,0.094203,-0.092261,-0.147404,-0.151203,0.074341,-0.030571,-0.137183,0.045598,-0.151155,-0.066223,0.057489,0.130188,-0.054801,
P106,-0.052137,0.052444,-0.019886,-0.152309,0.014144,-0.180491,-0.132198,0.063082,0.085229,0.114965,0.023285,0.074741,-0.049949,-0.082051,-0.159896,0.035493,-0.113929,-0.111878,-0.139555,-0.106166,-0.011966,0.154562,-0.096405,0.131268,-0.068482,0.18524,-0.072894,-0.114885,-0.056082,0.112026,0.048216,0.098032,-0.098028,-0.106606,0.078594,-0.102013,-0.001059,-0.145055,3e-06,-0.047816,0.079029,-0.078351,-0.016361,-0.000218,-0.038627,0.057308,0.036923,-0.073602,-0.072402,0.001785,-0.002824,-0.060708,-0.002136,-0.017358,0.059936,-0.133305,-0.034796,-0.075657,0.14732,-0.133039,-0.149887,0.052375,0.024344,0.050036,-0.146324,0.075327,-0.135969,0.031892,0.049475,-0.106037,0.088477,-0.185415,0.10508,0.10744,-0.0282,-0.121917,-0.165206,0.026541,0.125522,0.080844,-0.178644,-0.060746,-0.078724,-0.009305,0.088131,-0.097797,-0.155246,-0.030237,-0.017188,0.070897,-0.088902,-0.058958,-0.032021,-0.147213,0.082776,-0.169705,0.122445,-0.054737,0.055321,0.070961,
P735,-0.051398,0.056219,0.068029,-0.137717,-0.03005,0.061566,-0.103184,-0.074124,-0.118975,0.1221,0.090664,0.050602,-0.023321,0.135801,0.082776,0.134691,-0.093377,-0.100187,0.060942,0.058473,0.06526,-0.049564,0.013162,-0.047667,-0.054335,0.123371,-0.145068,0.015066,0.045329,0.131864,0.062462,-0.106206,-0.117788,-0.050399,0.019886,-0.046332,0.08265,0.060583,0.169631,0.108123,-0.030897,0.046386,-0.01442,-0.053038,0.157436,-0.021491,0.087635,-0.051152,0.054433,0.121686,0.037487,0.044515,-0.07968,-0.114405,0.029875,-0.124201,-0.094803,0.017489,0.111024,-0.108676,0.011377,0.143746,-0.180618,-0.052341,-0.118239,-0.081315,-0.111308,0.058716,-0.111563,-0.222551,-0.019004,-0.102315,0.269483,-0.023461,0.046179,0.050954,-0.020268,-0.085623,-0.011426,-0.110763,-0.158052,0.104254,-0.097153,0.060086,-0.05042,-0.121439,-0.112373,-0.028001,0.076174,-0.132399,-0.096461,-0.092234,0.05687,0.01364,0.042696,0.013683,-0.021127,-0.189257,0.055315,0.101863,
P108,0.091231,0.022526,0.059349,-0.141853,0.035025,-0.11104,-0.127337,0.047645,-0.172328,0.090933,0.022216,0.079914,0.043736,-0.096588,-0.242773,-0.039824,-0.078472,-0.190807,-0.07551,-0.011143,-0.004291,-0.109142,-0.055437,0.139692,-0.032522,0.124695,-0.054761,-0.046256,-0.115983,0.098595,-0.087121,-0.029367,-0.108338,-0.02172,-0.028068,0.029053,-0.128703,-0.103341,-0.139387,0.134218,0.207785,-0.022484,0.049616,0.144433,-0.102246,-0.064737,0.094036,0.059295,-0.120209,0.079042,0.10534,0.08343,-0.007747,0.033792,-0.025764,-0.043842,0.013634,-0.119388,0.001556,-0.057961,-0.081745,0.092388,-0.053616,0.09569,-0.001889,-0.154143,-0.17789,-0.13144,-0.219218,-0.111252,-0.10479,0.067291,0.130789,0.144343,-0.105937,-0.070367,-0.152791,-0.079241,0.008933,0.107746,0.076368,-0.071356,-0.05611,-0.030554,-0.087335,-0.108328,-0.039597,0.074101,0.094331,-0.08839,0.026855,-0.046994,-0.056248,-0.146538,0.121375,-0.211757,0.077591,-0.0022,-0.05388,0.140873,
P101,-0.03845,0.053671,-0.063569,-0.150071,0.076725,0.077381,0.074004,0.058924,-0.070409,0.138669,0.016776,0.098949,-0.121386,-0.101735,-0.145386,0.114508,-0.135644,-0.150908,-0.086748,0.016879,-0.066033,-0.091203,-0.073095,0.152311,-0.067878,0.143223,-0.068923,-0.083542,0.081431,0.125569,-0.121332,0.087998,0.039702,-0.080041,0.149063,-0.095954,-0.037331,-0.111105,-0.121092,-0.050126,0.073748,0.040368,0.021378,-0.025196,-0.139372,0.086121,0.074355,0.029257,-0.022436,-0.0985,-0.118194,-0.050779,0.000845,-0.124732,0.078069,-0.121473,-0.111983,-0.078645,0.133904,-0.113484,-0.11071,0.10083,0.013339,0.086549,-0.13517,-0.012711,-0.184424,0.147431,0.107744,-0.113939,0.170511,-0.148978,0.123587,0.094974,-0.116513,-0.092272,-0.125306,-0.015741,0.050106,0.063696,-0.150162,-0.102782,0.101328,0.052759,0.086079,-0.063312,-0.112057,0.144646,0.025701,0.098996,-0.086532,-0.112499,0.09343,0.062762,0.094013,-0.185905,0.136957,-0.040049,-0.049155,0.07797,
P69,0.070871,0.017892,0.071605,-0.177944,0.019506,0.022656,-0.145745,0.043527,-0.143017,0.080599,0.023205,0.008394,-0.003546,-0.091106,-0.190312,-0.062092,-0.043075,-0.2209,-0.046273,-0.036911,0.002575,-0.075656,-0.053835,0.009398,-0.0282,0.152947,-0.07091,-0.037095,-0.134213,0.1108,-0.040207,-0.050094,-0.071902,-0.02194,-0.033516,0.071785,-0.092026,-0.1111,-0.110646,0.1014,0.221573,-0.072936,0.01955,0.116304,-0.061692,-0.052998,0.120249,0.039449,-0.129179,0.125337,0.049853,0.074947,-0.00365,-0.012691,-0.032586,-0.055186,0.012156,-0.110493,-0.005427,-0.10989,-0.153042,0.14604,-0.040372,0.202817,-0.016268,-0.241364,-0.190592,-0.129366,-0.225908,-0.100757,-0.095691,0.036893,0.018483,0.134962,-0.078153,-0.051916,-0.201161,-0.083492,0.055444,0.059844,0.056015,-0.028959,-0.08105,-0.025824,-0.05569,-0.016661,-0.022006,0.069855,0.058614,-0.104168,0.010609,-0.065635,-0.061919,-0.104571,0.171008,-0.221741,0.054645,-0.001462,-0.016705,-0.006781,
P27,-0.001034,-0.071413,0.078409,-0.135587,-0.02354,-0.148491,-0.032054,-0.104719,0.037553,0.13158,0.068972,0.038243,-0.021492,0.02227,-0.149116,0.051431,-0.052678,-0.314631,0.017771,-0.12469,-0.054947,-0.024448,-0.101791,0.212046,0.028584,-0.061358,-0.029263,-0.044227,0.083212,0.122351,-0.06707,-0.049674,0.077832,-0.016649,0.00223,0.006867,-0.048225,-0.118579,-0.105043,0.113636,0.00179,0.00533,-0.002033,-0.010978,-0.122867,-0.013791,-0.036316,0.098075,-0.008298,0.11185,-0.171301,0.068268,0.0135,-0.015672,-0.017321,0.023129,-0.035521,-0.043583,0.085217,-0.133688,-0.177682,0.121344,0.024174,0.094669,-0.049564,-0.181461,-0.161248,-0.066431,-0.10537,-0.116052,-0.058926,-0.161723,0.10709,0.122637,-0.058192,-0.102837,-0.11126,0.121936,0.093649,0.019587,-0.016998,-0.040438,0.011555,0.08291,0.06448,-0.097547,-0.078692,0.108435,-0.03502,-0.116789,-0.096049,0.005482,0.003258,-0.09221,-0.138745,-0.211339,0.049551,-0.10383,-0.055104,0.155658,
P19,0.00088,-0.047513,0.055876,-0.066818,-0.040318,-0.134065,0.04279,-0.061842,0.02532,0.082933,0.003401,0.070724,0.043486,-0.009335,-0.127014,0.034362,-0.090569,-0.057555,-0.013524,-0.065492,-0.049082,0.081312,-0.070756,0.23346,0.03834,-0.023851,-0.00938,-0.058409,0.029845,0.106435,-0.011845,-0.065614,0.009084,-0.07154,-0.049669,0.054509,-0.071593,-0.101372,-0.045106,0.084416,-0.0541,-0.105142,0.061792,-0.014693,-0.090853,-0.02265,-0.016288,0.07665,-0.003253,0.102023,-0.221816,0.061719,0.052046,-0.062654,-0.048482,0.007732,-0.038324,-0.084377,0.096411,-0.16585,-0.121666,0.091667,0.0309,0.072653,-0.066837,-0.146444,-0.136078,-0.07943,-0.071377,-0.127032,-0.071946,-0.148041,0.08761,0.1121,-0.066772,-0.0575,-0.071635,0.092982,0.059767,-0.077822,0.011771,0.090371,0.000695,0.059081,0.031807,-0.11281,-0.057349,0.03647,-0.053819,-0.102074,-0.111388,0.029662,0.026527,-0.105318,-0.19016,-0.215584,0.076067,-0.069103,-0.045963,0.160296,
P1412,0.030544,0.149371,0.015236,0.036643,0.015171,-0.155142,-0.137766,0.043473,-0.219642,0.151052,0.07014,0.119743,-0.087779,-0.085418,-0.021801,0.186938,0.022273,-0.180202,-0.151515,0.021993,-0.129248,-0.067886,-0.063067,0.021371,-0.066071,0.097698,-0.051007,-0.002142,-0.068477,0.1351,-0.044051,0.048502,0.030675,-0.108851,0.156234,-0.101348,-0.11571,-0.061219,-0.062512,0.157812,-0.105375,0.06013,-0.003426,0.038893,0.143512,0.024635,0.142836,0.039286,-0.064017,0.013223,-0.09062,0.141211,-0.004723,-0.114485,-0.12408,-0.051003,-0.167028,0.075247,0.149424,-0.017866,-0.152015,0.076536,-0.030547,0.134534,-0.131169,-0.15457,-0.180139,-0.064282,0.02104,-0.021176,-0.067829,-0.049304,0.074953,0.098672,-0.107272,-0.115907,-0.134876,-0.096005,0.052559,-0.156583,0.003129,-0.039603,-0.176605,0.125426,0.031877,-0.037917,0.004247,0.047984,-0.040324,0.000251,-0.18628,-0.134058,-0.069841,0.033493,0.119225,-0.085768,0.152216,-0.043512,-0.034587,-0.028415,
P1343,0.110083,0.102304,-0.095374,0.085199,0.101029,0.124166,-0.138349,0.090198,-0.083513,0.116859,0.097862,-0.086173,-0.006184,0.128389,-0.124222,0.124444,0.096356,-0.146269,-0.051157,-0.128892,0.121885,0.084653,-0.105397,-0.053347,0.019331,0.112534,-0.089285,0.089781,-0.023668,-0.05987,0.137525,0.063337,-0.154905,0.081217,-0.068139,0.066018,-0.096918,-0.099642,0.137144,-0.112304,0.132641,0.070677,0.134637,0.087357,0.126097,0.066995,-0.035696,0.094526,-0.0864,-0.105917,0.099986,-0.106647,0.074104,0.102826,-0.144895,0.110826,-0.081019,0.078282,-0.052152,0.003146,0.081888,0.128844,-0.117187,0.107868,0.09318,0.085197,0.099613,0.105454,-0.128186,-0.098986,0.109635,-0.122718,0.11735,-0.096323,0.121969,0.083365,-0.017703,0.058609,0.080795,-0.106636,-0.08069,0.112634,-0.076228,-0.113486,-0.086538,0.101047,-0.130483,-0.08321,0.110707,-0.086574,0.105572,0.077413,-0.076894,0.090772,0.055654,-0.132116,-0.125693,0.029275,0.103218,0.151768,
P20,0.013021,-0.046431,0.0827,-0.073993,-0.033114,-0.147169,0.021658,-0.066601,0.019064,0.089603,-0.017237,0.027309,0.081618,-0.010069,-0.168078,0.058438,-0.06315,-0.17932,0.00136,-0.069564,-0.044827,0.097993,-0.095521,0.263281,0.079081,-0.025622,-0.004943,-0.060781,0.038729,0.122693,-0.003813,-0.033365,0.028013,-0.083955,-0.056562,0.062352,-0.07664,-0.097833,-0.062021,0.042303,-0.069566,-0.084406,0.067017,0.006687,-0.088411,-0.017762,-0.075846,0.109779,0.028448,0.10052,-0.243629,0.025832,0.045418,-0.048539,-0.071047,-0.008271,-0.043176,-0.110687,0.077961,-0.126519,-0.108647,0.096337,0.004905,0.08641,-0.057558,-0.16647,-0.033615,-0.115992,-0.222552,-0.11381,-0.090713,-0.237756,0.076612,0.066039,-0.073588,-0.114091,-0.093719,0.116392,0.05792,-0.087444,0.028004,0.106936,0.018777,0.094791,0.063297,-0.097103,-0.073483,0.043259,-0.043884,-0.092485,-0.094679,0.047234,0.030437,-0.106932,-0.206837,-0.194704,0.10568,-0.079492,-0.065565,0.247732,
P509,0.141286,0.030367,0.109865,-0.124899,0.103993,-0.101235,-0.070213,-0.101388,-0.140524,0.148119,-0.056169,0.04103,0.07289,0.051784,-0.18777,0.104273,-0.122812,-0.066342,0.138965,-0.125111,-0.175919,0.081615,0.007558,0.141112,0.06875,-0.032063,-0.114301,-0.122821,0.036056,0.122585,-0.056804,0.103689,0.082789,-0.129972,0.083253,-0.051307,0.105559,-0.131119,-0.106154,-0.129601,-0.092544,-0.001705,0.116474,0.042429,-0.054382,-0.091276,0.000552,0.055465,-0.023886,0.136728,-0.138125,-0.088688,-0.107875,-0.001483,0.110456,-0.077638,0.102333,-0.107262,0.104002,-0.153185,-0.119095,0.109986,0.020766,0.132064,-0.121881,-0.144697,-0.065522,0.0894,0.087129,0.037239,0.117956,-0.140766,-0.04526,0.040611,-0.057117,-0.033678,-0.145176,0.08619,0.130828,-0.073911,0.091152,0.072651,-0.084046,0.021059,0.064069,-0.207507,-0.025439,0.139385,0.074844,-0.041078,-0.107275,-0.094754,-0.078616,-0.126833,0.005674,-0.126836,0.028439,-0.026285,0.108185,0.118449,
P1196,0.081161,-0.0418,0.09615,-0.10577,-0.056221,-0.122835,0.116583,-0.10097,-0.114518,0.119491,-0.008268,0.011709,0.062396,0.068689,-0.164448,0.031853,-0.042476,-0.086435,0.142508,-0.089591,-0.198049,0.078135,-0.085236,0.151428,-0.077831,-0.083402,-0.12791,-0.104982,-0.076009,-0.004266,0.043748,0.128385,-0.0908,0.060418,0.123255,-0.107344,0.09721,-0.013496,-0.199784,-0.086831,-0.145976,0.020294,0.089463,0.059514,-0.021642,-0.081658,-0.05181,-0.069645,0.10157,-0.059529,0.004014,0.08072,-0.14424,-0.08359,0.097624,-0.0968,0.093009,-0.102177,0.101735,-0.148332,-0.131861,0.149439,0.057091,0.123571,-0.190503,-0.117423,-0.09536,0.164272,-0.048598,0.076376,0.142959,-0.139534,-0.010386,0.124157,-0.055641,0.093935,-0.127027,0.1095,0.129898,0.072146,0.063742,-0.045428,0.068259,0.146028,0.070038,-0.151985,-0.091283,0.112193,-0.088564,-0.109241,-0.00894,-0.050721,-0.041826,-0.137016,0.088093,-0.072585,-0.057296,0.044787,0.097688,-0.055178,
P734,0.039076,-0.021949,0.016378,-0.028835,0.034585,-0.118144,-0.167637,-0.02208,-0.172882,0.125284,-0.053321,-0.00483,0.090316,0.123738,0.113971,0.106472,0.007306,0.013963,0.047338,-0.067584,0.042725,-0.136453,-0.119501,0.090047,0.078883,0.203373,-0.197363,-0.058043,0.051531,0.127695,0.146221,0.028902,-0.211247,0.014939,-0.021311,0.043574,0.116968,0.057589,-0.032926,-0.034648,-0.038259,-0.086075,0.093718,0.019091,0.007723,0.056274,0.15758,0.033812,0.041352,0.172632,-0.069191,0.121836,0.03838,-0.156589,-0.171332,-0.014715,-0.145629,-0.109469,0.168408,0.0255,-0.086107,0.133405,-0.181802,0.078054,-0.003358,0.006261,-0.005189,0.032193,-0.106716,-0.124425,0.081681,-0.017197,0.131105,-0.060758,-0.024433,0.096654,0.042131,-0.150096,0.154152,-0.121494,-0.21295,0.0015,0.004194,0.080617,0.019633,-0.010401,-0.133146,-0.111782,0.099817,-0.138309,-0.160894,-0.11581,-0.104553,-0.103201,0.036772,0.005635,0.056244,-0.13725,-0.022005,-0.006641,
P17,-0.066804,-0.157604,0.013737,-0.154449,0.033526,-0.188399,-0.136264,-0.15235,0.156545,0.032248,0.10046,-0.053597,-0.172029,0.111622,-0.104407,-0.006519,0.051231,0.107462,0.078778,-0.077652,0.013106,-0.191202,-0.047271,0.168027,0.004169,-0.135645,0.019436,0.002111,0.137466,0.020602,-0.072013,0.014783,0.118058,0.061689,0.047722,-0.03828,0.074346,-0.02811,-0.146072,0.01816,0.192117,0.098545,-0.102615,-0.149351,-0.204403,-0.002734,-0.160369,0.040874,0.118081,0.032828,-0.231127,0.003497,-0.039643,0.051269,0.077508,0.064796,-0.00602,0.058207,0.011748,-0.049189,-0.070505,0.038328,0.091545,0.076314,0.023435,-0.140542,-0.001098,-0.004248,-0.14427,-0.014452,0.007744,-0.109086,0.029018,0.003693,0.067865,-0.015736,-0.019328,0.213341,0.005421,0.134922,-0.049558,-0.158151,0.134445,0.005642,0.11732,0.009116,-0.000386,0.1394,-0.17913,0.014761,0.02494,0.101863,0.076527,-0.011949,-0.222177,-0.061296,-0.06284,-0.028299,0.021267,0.092867,
P641,-0.016671,-0.119618,-0.015854,-0.106268,-0.075267,0.072403,0.04601,-0.120632,0.126915,0.114585,0.109815,-0.002664,-0.081276,-0.076964,-0.006102,0.075247,-0.14147,0.054159,-0.07797,-0.147484,-0.081369,0.051998,0.042584,0.164726,-0.095492,0.04925,-0.083308,-0.124705,-0.040374,-0.141588,0.014609,0.09367,-0.024602,0.047189,0.054954,-0.024424,0.131496,-0.116784,-0.091559,0.157581,0.084079,-0.040791,-0.177574,-0.072881,-0.114247,0.07814,-0.072124,0.047567,-0.153233,-0.107832,-0.20394,-0.015582,0.007743,0.008863,0.097893,-0.09582,-0.079072,-0.100187,0.129272,-0.142902,-0.138119,0.009959,-0.032602,0.12,0.131589,-0.210989,-0.197489,-0.080906,0.113061,-0.094811,0.11315,-0.02558,0.092232,0.075726,0.034234,0.114597,-0.018327,-0.021733,0.119153,-0.00946,-0.087884,0.008693,0.124503,0.031955,-0.011428,-0.088519,0.024547,-0.076879,-0.14404,0.068211,-0.098386,-0.125863,-0.08057,-0.077344,-0.227626,-0.16898,-0.026339,-0.083653,0.123398,-0.051225,
P463,0.0344,0.075337,-0.022096,-0.171531,0.001745,0.180335,-0.02988,0.156485,-0.182038,0.139774,0.023223,0.054534,0.029093,-0.061929,-0.157669,-0.02838,-0.110333,-0.162289,-0.033266,0.122708,-0.081916,0.086467,0.025621,0.194824,-0.03387,0.153864,-0.016363,-0.035922,-0.075915,0.11733,0.09949,-0.026382,-0.174821,-0.005009,-0.022071,-0.001224,-0.103242,0.118792,0.171275,0.066475,0.171724,-0.056217,0.041116,0.110612,0.160537,-0.029752,0.00536,0.008844,0.028475,-0.080834,0.006305,0.070994,0.064846,-0.031422,0.037535,0.012287,0.006774,-0.159592,0.012917,0.155055,0.125213,-0.118094,-0.072599,0.146046,0.025587,0.158201,-0.1621,0.121575,0.161416,-0.106474,-0.054106,0.168125,0.004534,0.066321,-0.16184,0.061156,-0.139567,0.016907,0.037626,0.022913,-0.128484,0.164808,-0.046286,-0.104854,-0.009738,-0.020577,-0.058254,-0.118917,0.087358,-0.03707,-0.036912,0.012354,-0.087121,-0.16525,0.13268,0.098627,0.010904,0.004415,0.00222,-0.12755,
P131,-0.12283,-0.146712,0.010542,-0.028854,0.000152,-0.178342,0.020467,-0.158293,0.149955,0.024734,0.041225,0.021268,0.051558,-0.043018,-0.075912,0.007903,-0.003442,0.091881,0.046106,-0.023255,-0.020266,-0.209751,-0.016637,0.043173,0.009436,0.14009,0.013061,0.014331,0.15773,0.018421,-0.016362,-0.002384,0.006665,-0.013626,-0.020344,0.146287,-0.161227,-0.028346,-0.11456,0.025396,-0.28713,0.14506,0.017095,-0.119804,-0.182088,0.004035,-0.208127,0.025414,0.193236,0.022186,-0.332456,0.011932,0.006707,-0.01503,0.017208,0.019943,-0.007996,-0.025363,0.01619,0.254815,-0.024079,0.015703,0.081543,0.016092,-0.012107,-0.034925,-0.030797,-0.018862,-0.018066,-0.032974,-0.020968,-0.030383,0.043309,0.021962,-0.000492,-0.025237,-0.017092,0.183809,0.031916,-0.029052,-0.001391,-0.096351,0.010377,0.023841,0.097965,-0.017267,-0.021077,0.120648,-0.207797,-0.014853,-0.013586,0.113518,0.074968,-0.026857,-0.354143,-0.027823,0.004727,-0.023017,-0.014431,0.040104,
P159,-0.095321,-0.141079,-0.011192,-0.077814,-0.041324,-0.186082,0.172587,-0.147369,0.141624,0.050501,-0.085937,-0.03418,-0.069614,-0.087381,-0.124767,0.049396,0.011928,-0.158438,0.068131,0.00818,0.026998,0.170082,0.033017,0.160843,0.106295,-0.105187,0.038867,0.014582,0.143637,0.020765,0.052639,-0.041002,0.157547,-0.115939,-0.011501,0.108057,-0.084546,0.002738,-0.127107,0.013386,-0.224498,-0.056727,-0.059565,-0.159235,-0.167065,0.02705,-0.130725,0.05962,0.108804,0.031074,-0.213421,-0.000757,0.076506,-0.079682,-0.011541,0.054361,-0.008653,-0.002861,0.08611,-0.173516,-0.002524,0.013567,0.073678,0.029013,-0.025362,-0.101502,0.038217,-0.024225,-0.001185,0.005659,-0.007484,-0.20655,0.169342,0.007976,-0.001193,0.033766,-0.035251,0.135317,0.002373,-0.142693,0.055689,0.157132,0.120495,0.13815,0.110012,-0.00234,-0.019917,0.148295,-0.177656,0.022727,-0.11868,-0.013801,0.115522,-0.000156,-0.237837,-0.013063,0.001679,-0.025503,-0.054517,0.097242,
P39,-0.0519,0.06034,-0.058713,-0.164586,-0.062961,-0.249929,-0.160607,0.070793,0.040375,0.109103,-0.051909,0.03865,-0.02932,-0.071069,-0.16486,-0.024639,-0.071338,-0.137192,-0.182797,-0.110074,-0.079985,0.160305,-0.081783,-0.064479,-0.007924,0.21893,-0.003733,-0.082138,0.042759,0.108353,0.058854,0.056213,-0.175962,0.01715,-0.047278,-0.160117,-0.064157,-0.166468,0.059231,0.061848,-0.05594,-0.064394,0.064759,0.071912,0.045675,-0.031296,0.074778,-0.037918,-0.085379,0.090562,-0.066499,-0.050522,-0.101367,-0.035529,-0.046896,-0.212281,0.033334,-0.088141,0.130791,-0.111657,-0.181032,0.121464,-0.047992,-0.010594,-0.148172,0.052904,-0.156975,-0.063438,0.030171,-0.145982,-0.012518,-0.193455,0.088378,0.098223,-0.05864,-0.078585,-0.159863,0.039346,0.094256,0.050843,0.043375,0.0891,-0.054256,0.076972,-0.018644,0.068811,-0.162261,-0.019335,-0.051041,-0.040093,0.060325,0.026985,-0.146237,-0.128962,0.076174,-0.000888,0.174598,-0.068152,-0.055273,0.036611,
P3373,-0.008519,0.001118,0.00867,0.000638,0.006659,0.006767,-0.005419,0.004025,-0.006626,0.002276,0.004286,-0.002899,-0.004462,-0.002705,0.002116,-0.001836,-0.003812,-0.001495,-0.007528,-0.01699,0.003525,-0.007176,-5.6e-05,0.001406,-0.007969,0.000309,0.002855,-0.002429,0.001349,-0.006919,-0.001514,0.003108,0.001883,0.003318,0.000909,-0.000659,0.003268,0.002934,-0.010115,0.000555,-0.006723,0.015988,-0.002765,-0.01178,-0.004135,0.00599,-0.012033,0.010448,0.014779,-0.001156,-0.005117,-0.007117,-0.000543,0.004053,0.000597,-0.001908,-0.004528,0.010103,0.012928,-0.000561,0.007915,-0.027382,-0.004661,-0.004467,0.011279,0.00098,0.005765,-0.004057,0.01022,0.009903,-0.005251,-0.006691,0.004001,0.004038,0.002938,-0.005397,0.002657,-0.005968,0.00989,0.010703,-0.00097,-0.013428,0.00129,0.000314,-0.008705,-0.000496,0.012205,-0.005352,-0.000875,-0.000943,-0.013429,0.002761,0.005883,0.008955,-0.006587,-0.003999,-0.00059,-0.004006,0.001182,-0.001311,
P551,-0.039375,-0.051916,0.053481,-0.168893,-0.106668,-0.156885,0.024774,-0.057532,-0.001115,0.080735,-0.017365,0.011462,-0.027093,-0.068173,-0.213991,0.068052,-0.054946,-0.150397,0.04256,0.017836,-0.026884,0.103289,-0.070305,0.222359,0.053177,0.057855,-0.015442,-0.027119,0.006667,0.09481,-0.152479,-0.016986,-0.032655,-0.092218,-0.02575,0.086449,-0.112965,-0.095188,-0.115454,0.123402,-0.050119,-0.100824,0.072764,-0.091551,-0.068712,-0.01273,0.000468,0.066805,-0.017199,0.103625,-0.172803,0.066445,0.073301,-0.054173,-0.04113,-0.005066,-0.030512,-0.139709,0.069111,-0.060818,-0.144743,0.155933,0.085449,0.159326,-0.069173,-0.176782,-0.188655,-0.145623,-0.055442,-0.151288,-0.037457,-0.20853,0.106056,0.097322,-0.085944,-0.043557,-0.151171,0.053113,0.065134,-0.11538,-0.003104,0.079517,-0.034569,0.062847,0.045578,-0.101254,-0.089037,0.161608,-0.031964,-0.098636,-0.128545,-0.001192,-0.032303,-0.116317,-0.190515,-0.212265,0.057963,-0.017537,-0.057534,0.189194,
P793,0.13571,0.180002,0.029276,0.122837,-0.037978,-0.132154,0.065903,0.163156,-0.098764,-0.076888,-0.00744,0.003533,-0.097547,0.049881,0.114165,0.010466,-0.045569,-0.10034,0.061354,-0.011729,-0.116583,0.116833,0.011531,0.174083,-0.116531,0.012626,-0.016027,0.000817,-0.102656,-0.026346,-0.133397,0.144158,-0.163963,-0.093216,0.139345,-0.002121,0.092853,0.026195,-0.153967,-0.135381,0.067001,-0.039394,0.064804,-0.135878,-0.150572,0.061968,0.04057,-0.079127,0.132707,0.056647,-0.154794,-0.078219,-0.059715,-0.083745,0.124274,-0.099879,0.06044,-0.121362,0.075523,-0.093167,0.027751,-0.061977,-0.124686,0.108431,-0.111311,-0.114926,-0.152335,0.158437,-0.014041,-0.081886,0.155241,-0.14458,-0.102455,0.145773,0.08618,0.136433,-0.017856,-0.165873,-0.013767,-0.027937,0.056498,-0.146427,-0.018129,0.14181,-0.014479,-0.125441,-0.135894,-0.128705,0.159033,-0.031052,0.100508,0.026462,-0.086076,0.038791,0.150765,-0.006476,-0.025641,0.002661,0.069351,0.011285,
P2094,0.042525,0.114834,-0.009143,-0.069487,-0.11171,-0.136414,0.036795,0.146404,0.182248,0.104299,0.010022,-0.140638,0.028009,0.197203,-0.033864,0.06684,-0.10072,0.008004,-0.093359,-0.123224,-0.077457,-0.232975,-0.010772,0.005378,-0.168588,0.089385,-0.123671,0.005753,0.036998,-0.036723,0.078817,0.044277,-0.189205,0.077455,0.103365,0.09686,-0.006145,-0.077,-0.125706,-0.153991,0.048355,-0.060968,-0.006845,0.070569,0.057404,0.049719,0.045672,-0.099669,-0.192959,-0.14001,-0.164874,0.070449,0.088432,0.078014,0.123398,0.061873,-0.139241,-0.051578,0.178795,0.005127,-0.044638,0.017236,0.021768,0.058923,-0.006877,-0.12246,0.13587,0.070406,0.062596,-0.105517,-0.176573,0.230577,0.11692,-0.007829,-0.065558,0.159728,-0.040226,0.068724,0.072027,0.032444,0.090612,-0.013562,0.13474,-0.059942,-0.076879,-0.05735,0.05819,0.096458,0.004573,0.043431,-0.011273,-0.170823,-0.014716,-0.043731,-0.22734,-0.063918,-0.03169,0.026568,-0.057639,-0.034662,
P1344,0.122527,0.143666,0.018273,0.058765,-0.050648,0.168048,0.111868,0.181114,-0.099255,-0.003915,0.162142,-0.076794,0.087189,0.145381,0.078396,0.006637,-0.004889,-0.069437,0.010628,0.055299,0.128487,-0.106032,0.011163,0.159012,0.01963,0.014637,0.017703,-0.132125,-0.04836,0.094364,0.030036,-0.078229,-0.169968,-0.085417,0.092485,-0.045916,-0.074848,-0.043527,0.11121,-0.113537,-0.131373,-0.084792,0.102007,-0.157175,0.1658,0.012455,0.118389,0.0555,-0.068896,0.164478,0.167644,0.141682,0.003699,0.114785,0.022194,-0.035731,0.090389,-0.120958,0.122397,0.053802,-0.157949,0.013954,0.045057,0.060165,-0.116144,0.062998,-0.187996,-0.139752,0.130861,-0.107508,0.063448,-0.138732,0.098387,-0.006268,-0.085762,0.169915,0.009429,-0.055093,0.047302,-0.105295,-0.154038,-0.009857,-0.149841,0.092142,-0.060553,-0.111943,-0.064722,0.068462,-0.049752,-0.076133,0.013504,-0.057271,-0.046158,0.03261,-0.1518,-0.146879,0.016841,-0.110169,0.078912,0.05247,
P1303,-0.034934,0.072995,-0.010044,-0.140486,0.038979,-0.153107,-0.114109,-0.072636,0.105768,0.086978,0.01534,0.015341,0.074129,-0.062398,-0.154022,0.032873,-0.009946,-0.085983,-0.129065,0.101119,-0.080885,0.124292,-0.100213,0.163585,-0.024036,0.105633,-0.059666,-0.106291,0.103485,0.093156,-0.040334,0.123878,0.024252,-0.111909,0.091005,-0.043632,0.130765,-0.144881,-0.140549,-0.024818,-0.035087,-0.10457,0.012934,-0.004459,-0.141661,0.055498,0.105884,0.104819,0.001334,0.063702,0.086844,-0.076882,0.026147,-0.159729,0.102387,-0.144853,-0.077215,0.056821,0.098141,-0.188265,-0.156939,0.113307,0.078744,-0.112086,-0.050882,-0.026874,-0.029766,0.068526,0.073002,-0.090757,0.095956,-0.162093,0.06765,0.117995,0.10103,-0.134238,-0.143684,-0.071867,0.093598,0.051498,-0.16093,-0.136499,-0.085514,-0.111609,-0.144733,-0.139792,0.042935,0.117257,0.154021,0.042252,-0.12843,-0.132972,0.044918,-0.120963,-0.131422,-0.039678,0.132161,-0.096235,-0.092175,0.054909,
P512,0.112223,0.078682,0.068567,-0.113284,-0.086485,-0.152039,-0.120352,0.054551,0.034277,0.102681,0.00495,0.094332,0.020697,-0.074443,-0.141295,0.039945,-0.101233,-0.146245,-0.134397,-0.216841,0.029213,-0.01849,-0.114836,0.10834,-0.095789,0.183645,-0.089146,-0.073212,0.042753,0.074069,-0.083717,0.034989,-0.005144,-0.099736,0.089527,-0.082039,-0.127188,-0.167172,0.105494,-0.037176,0.129672,-0.078301,0.077117,0.100758,-0.050465,0.056378,0.008192,-0.002046,-0.002914,0.087194,0.056695,-0.114141,-0.044058,-0.085203,0.106367,-0.145964,0.057894,-0.121865,0.09087,-0.125549,-0.230352,0.109583,-0.091838,0.026373,-0.149076,0.022255,-0.169498,-0.124092,0.022775,-0.148936,0.103938,-0.127597,0.09576,0.095079,-0.123493,-0.102811,-0.165839,-0.142752,0.104356,0.00275,0.073808,-0.137303,0.028554,-0.054959,-0.003077,0.062657,-0.065638,0.074417,-0.082028,0.105253,0.093927,-0.091366,-0.083573,-0.060006,0.048881,-0.149885,0.107224,-0.06133,0.019861,0.12298,
P84,-0.02844,-0.075856,-0.007473,0.173612,0.025191,-0.152747,0.005419,-0.06348,0.145299,-0.050201,0.108764,0.0642,0.151094,0.155795,-0.068597,-0.047897,0.036795,0.185132,0.002755,-0.046053,-0.018178,0.036788,0.012883,-0.042725,-0.106316,-0.09421,-0.022822,0.018243,0.113117,-0.0932,0.112699,0.100828,-0.123675,0.095789,0.072732,0.011541,-0.03604,-0.061188,-0.180564,-0.100944,-0.182166,-0.005573,0.155897,-0.126877,-0.000264,-0.027132,0.040293,-0.146574,-0.049334,-0.080271,-0.202161,-0.077576,-0.032548,0.037529,0.063255,0.065609,-0.022435,0.047385,-0.059932,0.11322,0.144364,-0.127635,0.078595,-0.142839,0.004868,0.041998,-0.165704,0.158082,0.206772,-0.108804,0.142809,0.171583,-0.099078,-0.151476,-0.113697,0.102798,0.056204,-0.002225,-0.031238,0.153292,0.00357,-0.137899,-0.06855,-0.01577,0.068002,0.039445,0.030606,0.115245,-0.162469,0.052066,0.135255,0.074507,0.007325,0.099834,0.081835,0.160504,-0.067146,-0.004235,0.013076,-0.127522,
P466,0.000472,-0.057613,-0.0081,0.074849,0.058956,0.006758,-0.027815,-0.165758,-0.010415,-0.122204,0.157057,0.028109,0.058476,0.024767,0.007206,-0.048957,-0.013087,0.181662,-0.098131,-0.03121,-0.045876,-0.13,-0.001586,-0.172164,-0.120918,-0.022113,0.00239,-0.009047,-0.034589,0.008378,-0.186812,0.078133,0.139723,-0.018936,0.042237,0.031323,-0.159811,0.064081,-0.214181,0.066544,0.203198,0.01014,0.113373,0.116208,-0.199122,-0.011115,0.14122,-0.053771,-0.089312,0.017162,-0.230637,0.000539,-0.038192,0.048255,-0.000665,0.05248,0.006581,-0.035325,-0.069477,0.011727,0.157757,0.038221,0.019062,0.046564,0.026159,0.177332,-0.173655,-0.030934,0.15573,-0.046109,0.017338,0.206843,-0.008763,0.039065,-0.151717,-0.107472,-0.00917,0.125021,0.01079,0.146064,-0.04112,-0.170821,-0.152687,0.031441,-0.09021,-0.027588,0.071507,0.174357,-0.15691,-0.028248,0.074672,0.1321,0.022472,-0.031079,0.17114,-0.023054,-0.023332,0.00555,0.056215,-0.190923,
P462,0.102336,0.144698,0.056915,-0.023608,0.01568,-0.011482,0.139968,-0.134692,0.117145,0.10733,0.130836,0.051112,-0.098184,-0.001201,-0.111835,0.006555,0.109772,0.101409,-0.116417,0.133545,0.013778,0.116097,0.102914,-0.052965,-0.141159,0.062011,-0.082029,-0.00357,0.122132,-0.042495,-0.156592,-0.044888,-0.04694,0.107544,0.077293,-0.117829,0.021295,0.056326,-0.137851,-0.134134,0.067792,0.126188,0.072595,-0.185598,-0.095042,0.147757,0.010327,0.019248,0.14923,0.003985,0.130004,0.086474,-0.05067,-0.106316,-0.095453,-0.105043,-0.043749,0.172094,0.019682,0.109501,0.091488,-0.165785,-0.026178,0.058382,-0.011512,0.128032,0.049374,0.11456,0.107457,-0.104191,-0.134502,-0.184757,0.169404,-0.061467,0.091798,0.090451,0.110798,-0.101531,-0.029381,0.126339,-0.02014,-0.107966,0.114784,0.051485,0.106858,-0.135008,-0.09713,-0.138524,-0.151901,0.075286,0.030197,-0.121191,0.021572,0.01498,-0.031728,-0.135552,0.014166,0.023395,0.013965,0.111349,
P361,0.003432,0.028478,0.008924,0.002266,0.033304,0.208328,1.3e-05,-0.144124,-0.032281,0.041371,0.193458,0.030706,-0.127836,0.061115,-0.153437,0.003145,-0.039822,-0.036113,0.172285,0.139738,-0.033525,-0.141463,-0.002381,0.037375,-0.001942,-0.149705,0.018268,-0.015186,-0.029993,-0.004876,-0.152719,-0.022825,0.194385,-0.031206,0.018215,-0.001474,-0.040536,-0.016299,-0.175542,-0.01865,0.179812,-0.151978,-0.016711,-0.138828,-0.175308,-0.173784,-0.111907,0.005578,-0.104956,0.034362,0.175551,0.034217,0.017168,0.003774,0.051965,0.007898,-0.007595,-0.019757,-0.008291,0.177738,-0.030314,0.031931,-0.175703,0.032307,-0.001771,-0.178572,-0.031053,0.17516,-0.184407,-0.019668,-0.018518,0.164913,0.014749,0.01599,-0.17978,0.153296,0.142645,-0.172302,0.027752,0.002703,-0.185723,-0.131706,-0.032527,-0.053156,0.132618,-0.018263,-0.023019,0.163139,0.170541,-0.013881,0.005269,-0.014277,-0.011409,-0.020988,0.005513,-0.032977,0.024241,-0.018871,0.026028,0.163213,
P3032,0.00162,-0.003385,0.014819,-0.011422,-0.001142,0.005093,0.005788,0.00999,-0.001517,0.004568,0.007041,-0.018636,0.008305,-0.003836,0.024866,-0.007341,0.013316,0.001082,-0.000329,0.000386,0.002422,-0.009671,-0.000941,-0.004194,0.008787,-0.015681,0.002046,0.002528,0.00726,0.002163,0.003056,0.002899,-0.006699,-0.002739,-0.000581,0.031341,0.000805,-0.00198,0.005034,0.006569,-0.046838,0.014936,-0.009713,0.004338,0.010481,0.001752,-0.034286,-0.009462,-0.001459,0.00222,0.003364,-0.004331,-0.008572,0.004298,0.017846,0.001171,0.00714,-0.017507,0.01636,-0.002349,0.00629,-0.002219,-0.007869,0.001659,0.00856,0.004128,-0.001427,0.000255,-0.003025,-0.013598,0.006925,0.005659,-0.000285,0.000621,-0.001302,-0.003083,0.008787,0.028535,-0.01065,0.009089,0.008715,0.000159,0.011139,-0.000997,0.057535,0.004136,0.015311,-0.008539,-0.134457,-0.005405,0.003517,0.095557,0.003864,0.002149,-0.013164,-0.025407,0.002917,-0.00152,-0.00039,0.00234,
P413,0.147563,0.012255,0.063118,-0.1007,0.102269,0.04945,-0.045267,0.072098,0.155554,-0.036773,0.146084,0.125092,0.023288,0.231054,-0.05674,0.083198,-0.07802,-0.069738,-0.105948,-0.192695,-0.039513,0.108829,-0.104041,-0.059299,-0.057167,-0.06274,-0.035223,-0.082001,-0.002501,0.186703,-0.01637,0.00755,-0.059618,0.001426,0.005511,-0.010337,-0.079882,0.029347,-0.095595,0.12347,-0.115596,0.022747,0.15522,0.081575,0.111154,0.018631,0.150229,-0.070509,-0.182458,-0.066348,0.074303,0.064727,-0.015401,-0.110451,-0.093298,-0.141805,0.020904,-0.116521,-0.05526,-0.016285,-0.121698,0.030362,0.003843,0.069903,0.147205,0.022034,-0.194595,-0.123928,-0.059289,-0.16864,-0.01149,0.046286,0.09389,-0.053841,0.112069,-0.001251,-0.068304,-0.065554,0.098288,0.004446,-0.277844,0.037412,0.054787,0.124351,0.085933,-0.08187,0.073201,-0.045284,-0.187399,-0.118052,-0.120372,-0.104727,-0.083266,0.009013,0.065596,-0.166388,-0.050041,-0.052083,0.001367,0.065547,
P1532,0.054627,-0.063991,0.119191,-0.075694,-0.070115,-0.088093,0.065279,-0.151193,0.122677,0.092904,0.168688,-0.06793,-0.026106,0.016888,-0.028873,-0.002803,-0.044718,0.056371,0.021909,-0.129338,0.01551,-0.101975,-0.048113,0.234471,0.010667,-0.064238,-0.053037,-0.07354,0.04312,0.12742,-0.038224,-0.048321,0.08366,0.122548,-0.009156,0.006573,-0.001115,-0.083895,-0.095785,0.133963,0.007332,0.013818,0.004176,-0.146955,-0.090409,-0.019116,0.008926,0.109633,-0.062448,0.012846,-0.226381,0.078416,0.06016,-0.006306,0.060776,0.024256,-0.06532,-0.08408,0.1395,-0.145551,-0.172387,0.123888,0.03322,0.116188,0.08151,-0.142984,-0.212517,-0.138834,0.001522,-0.133709,-0.034769,-0.128831,0.149617,0.11594,-0.019062,-0.030461,-0.039596,0.100425,0.104536,-0.049619,-0.045812,-0.048557,0.02173,0.166069,0.031354,-0.133178,-0.049418,0.111554,-0.173134,-0.1229,-0.101663,0.015404,0.008143,0.039233,-0.184944,-0.223325,-0.08237,-0.126939,-0.001109,0.213759,
P118,0.133191,-0.014914,-0.058003,-0.005556,-0.120545,-0.030183,-0.003183,0.225212,-0.072719,0.074249,0.179234,0.004914,0.16217,-0.101981,0.151804,-0.042938,0.043124,-0.07368,0.02485,-0.173603,0.169267,0.003313,0.01344,0.063386,0.03417,0.110249,-0.038007,-0.179875,0.030906,-0.013917,0.025635,-0.037923,-0.044383,0.02001,0.035251,-0.0333,-0.070501,0.092654,-0.091704,-0.106101,0.015144,-0.020588,0.178569,-0.09004,-0.004275,-0.213235,-0.085411,0.074633,-0.005818,0.175439,-0.226543,0.010219,0.003533,0.020781,0.088432,-0.024314,0.043366,-0.254015,0.061652,-0.055904,-0.114822,-0.006299,-0.137712,0.029101,-0.089116,-0.068636,0.055196,0.020031,0.004632,0.097363,-0.107918,0.194324,0.14209,-0.086491,-0.017415,0.207411,-0.029771,-0.056917,-0.018514,-0.149605,0.05036,0.107051,0.084202,0.166272,-0.084373,-0.106032,-0.055565,0.078771,0.039023,0.077257,-0.032642,0.020311,-0.044787,-0.000812,-0.184673,-0.004735,-0.057067,-0.098747,0.160584,-0.006532,
P54,0.114299,0.034989,0.048515,0.018772,0.060824,0.24472,-0.001416,-0.14555,0.011744,-0.001547,0.092824,0.09462,0.023039,0.052317,-0.020124,0.022507,-0.057814,0.021183,-0.050619,-0.261051,-0.164934,-0.016668,-0.0259,-0.198678,-0.011574,0.001681,-0.044654,-0.233099,-0.028502,0.140395,-0.010683,0.008049,0.00626,-0.069431,-0.011311,0.016728,-0.008326,-0.004854,0.003183,0.169076,-0.015003,-0.003953,0.120319,0.132174,0.032902,-0.004171,0.145495,-0.023371,-0.063833,0.136727,-0.397254,0.054104,0.024024,-0.045398,-0.038918,0.019042,-0.036482,-0.241027,-0.005308,-0.03727,0.037669,0.101706,-0.055442,0.015697,0.034585,0.147082,-0.09749,-0.093409,0.008448,-0.128411,-0.016908,0.114591,0.009999,0.077451,-0.012251,-0.168096,-0.002221,-0.011352,0.089418,0.038912,-0.199831,-0.057697,-0.108926,0.028071,0.005171,-0.091597,0.01874,-0.134445,0.002806,-0.117429,-0.070864,0.005265,-0.05801,-0.057569,0.069946,-0.194361,0.003784,-0.016428,0.028654,0.082277,
P366,-0.042941,-0.110585,0.014092,-0.00937,-0.103246,-0.159586,-0.038917,0.087899,0.132027,0.170245,0.180768,-0.110931,0.070296,-0.139358,-0.005358,0.016094,0.09995,-0.06123,0.135245,0.168785,-0.036635,0.014435,0.017461,0.153731,-0.174056,-0.168237,-0.026538,-0.004091,0.146628,0.02238,-0.209079,0.18087,0.137766,0.001268,0.021503,-0.052627,-0.020814,-0.018176,-0.160634,0.130225,0.199091,-0.021931,0.033737,-0.116291,-0.185759,0.140691,0.03967,0.004889,0.064955,-0.122585,-0.182284,0.007839,-0.005341,-0.019549,0.157862,-0.048621,-0.003807,-0.152812,0.004939,-0.022219,-0.013674,0.023562,-0.092152,0.021109,-0.006456,0.003016,-0.030044,0.09235,0.175413,0.106539,0.118787,0.129477,0.019685,0.030238,0.13043,-0.082266,-0.018854,0.136001,0.093079,0.030217,-0.077258,-0.167027,0.142442,0.054045,0.108571,-0.027197,-0.038218,0.123723,-0.160248,0.037783,-0.011076,-0.018889,-0.127385,-0.015583,0.012402,0.016652,0.015542,-0.017568,0.011211,-0.129452,
P527,-0.017095,-0.174878,0.012128,-0.050085,-0.029177,-0.198603,0.046193,0.00998,0.188246,-0.041101,0.016102,-0.026605,0.132178,-0.043955,-0.184736,-0.114081,0.122846,0.036061,0.181679,-0.113185,0.050404,-0.004867,0.000771,-0.052021,-0.006795,-0.001381,-0.003425,0.008516,0.185593,-0.156661,-0.209581,0.01586,0.194288,0.028416,-0.014894,0.003068,0.05894,0.006684,0.219967,0.022196,-0.163108,0.00808,0.00508,0.143347,0.007958,0.179928,0.002712,-0.013187,0.103761,-0.02774,-0.121721,-0.047684,-0.091272,0.008741,-0.140702,-0.008717,0.002889,0.022405,-0.011026,-0.176883,0.022999,-0.01806,0.075768,-0.049887,0.000665,-0.166353,0.032026,0.206458,-0.184726,-0.170036,0.022243,-0.206891,0.00301,-0.021886,-0.016195,-0.032012,-0.169624,-0.008028,-0.03143,0.010082,0.169377,0.14099,0.01962,0.155648,0.015434,0.018261,0.021922,0.196279,-0.147774,0.030572,0.00548,0.003031,0.018155,0.022349,0.012695,0.032501,-0.026368,0.004861,-0.015582,0.169466,
P119,-0.021946,-0.03691,0.026295,-0.144966,-0.007129,-0.173223,0.029205,0.015199,-0.167491,0.149857,-0.023065,0.004135,0.056031,0.145019,-0.191176,0.040089,-0.074332,-0.168368,0.040585,-0.102204,-0.02002,0.096893,-0.076754,0.21701,0.098424,0.022481,-0.039183,-0.031063,-0.177333,0.139257,0.038315,-0.06858,0.015577,-0.074976,-0.063198,0.002677,-0.089605,-0.122553,-0.07648,0.038482,-0.098966,-0.068036,0.05249,0.009017,-0.024093,-0.060831,-0.092511,0.104915,-0.015088,0.128174,-0.253841,0.008858,0.021469,-0.056087,-0.1057,-0.007645,0.022347,-0.110288,0.0738,-0.131813,-0.112284,0.133817,0.00399,0.100333,-0.070189,-0.155221,-0.010117,-0.196287,-0.179205,-0.133826,-0.147429,-0.198359,0.082545,0.044999,-0.012801,-0.101515,-0.110532,0.048233,0.075897,-0.103353,0.026541,0.108952,0.031421,0.055799,0.104243,-0.060432,-0.078508,0.088119,-0.043238,-0.121567,-0.063405,0.030902,0.032743,-0.10876,-0.18034,-0.062196,0.09661,-0.094969,-0.055102,0.183211,
P495,-0.010054,-0.087525,0.147304,-0.033276,-0.097805,-0.108142,0.072953,-0.150694,0.162375,0.0804,0.208833,-0.041168,-0.067624,-0.068077,-0.198393,-0.087324,0.090711,0.071265,-0.072313,-0.041092,0.006274,0.007342,0.007973,0.128147,-0.043843,-0.116394,0.055761,-0.011906,0.150025,0.119947,-0.152542,0.039676,0.18413,0.038283,-0.064341,0.003426,-0.131208,-0.174124,-0.147672,0.083735,-0.103964,0.015939,-0.067334,-0.066779,-0.158698,0.090824,-0.059724,0.155072,0.135189,0.058731,-0.067515,-0.082142,0.104014,0.065696,0.067313,0.078227,0.068075,0.079118,-0.020377,-0.066478,-0.067405,0.028798,-0.005705,0.018088,-0.036195,-0.179642,-0.080478,-0.133816,-0.0546,-0.057667,-0.16259,-0.162729,0.108899,-0.02967,-0.118876,-0.161425,-0.032606,0.070117,-0.009705,0.086589,0.065583,-0.159688,0.114569,0.091421,0.158242,-0.108742,0.049199,0.124256,-0.091259,-0.078062,-0.105088,0.076725,0.066299,0.011753,-0.020583,-0.062015,-0.03781,-0.153895,-0.081603,0.092229,
P58,0.028298,0.08978,0.092143,0.115821,-0.067343,0.050181,0.0195,-0.063963,0.103719,-0.076047,0.086973,-0.083121,-0.048326,-0.129706,0.014716,-0.113021,0.052837,0.084052,-0.066859,0.096199,0.053709,-0.118373,0.104319,-0.092662,-0.068581,-0.095824,0.070175,0.002738,0.08588,0.036776,-0.076994,0.098797,-0.003078,0.070719,-0.08153,-0.013881,-0.069921,-0.246985,-0.060283,-0.130418,-0.098338,0.043304,-0.012807,-0.08264,-0.182135,0.097486,-0.021058,0.066547,-0.002946,-0.058397,0.039425,-0.257504,0.087992,0.079487,0.097677,0.085293,0.089013,0.044042,-0.058401,0.01434,0.035312,-0.083641,-0.093104,-0.073751,0.083577,0.016498,0.020256,-0.057522,0.051674,0.099928,-0.093134,0.024233,0.054187,-0.114338,-0.112747,-0.079403,0.073231,-0.021792,-0.071862,0.112128,0.073913,-0.093024,0.112368,0.040071,0.096088,-0.071105,0.064234,-0.100563,-0.058818,-0.008075,0.119851,0.059931,0.031524,0.090789,0.094947,0.058093,-0.035783,-0.103031,-0.048449,-0.011104,
P57,0.038686,0.101302,0.076995,0.125466,-0.083099,0.055992,0.008737,-0.060103,0.11225,-0.068408,0.063216,-0.078888,-0.060868,-0.106423,0.018624,-0.117743,0.060809,0.101947,-0.060666,0.073761,0.079876,-0.082345,0.097421,-0.094881,-0.086802,-0.058752,0.070929,0.008323,0.092901,0.020045,-0.080077,0.081966,-0.004225,0.07298,-0.077906,-0.014717,-0.083802,-0.089081,-0.061607,-0.12786,-0.09461,0.041809,-0.020951,-0.056203,-0.115222,0.102232,-0.019863,0.063637,0.006872,-0.084031,0.069157,-0.27225,0.071212,0.086596,0.067626,0.068396,0.089423,0.067383,-0.058388,0.021628,0.054093,-0.082437,-0.085129,-0.089296,0.070561,0.00135,0.020027,-0.039557,0.035459,0.095232,-0.087233,0.028169,0.04435,-0.098059,-0.116074,-0.220174,0.078192,-0.016899,-0.088439,0.109187,0.090439,-0.071732,0.104255,0.015373,0.093158,-0.07968,0.03764,-0.089303,-0.05293,-0.016705,0.086797,0.058654,0.018088,0.107367,0.112184,0.071911,-0.046388,-0.082895,-0.057395,0.0091,
P161,0.058025,0.099828,0.078168,0.083857,-0.040277,0.056506,0.180899,-0.051115,0.119577,-0.04493,0.06251,-0.047245,-0.070199,-0.124,-0.007914,-0.107947,0.059964,0.050968,-0.094509,0.100246,0.086477,-0.174727,0.098375,-0.147842,-0.086479,-0.096921,0.097421,-0.135113,0.061997,0.17515,-0.018548,0.086776,0.199368,0.077874,-0.083932,-0.031096,-0.09783,-0.159871,-0.020609,-0.108976,-0.114673,0.099468,-0.082197,-0.045953,-0.197252,0.083989,-0.05355,0.117313,0.148313,-0.090079,0.089928,-0.215713,0.063167,0.081268,0.054876,0.088313,0.09651,-0.014154,-0.087355,0.086597,0.068938,-0.095612,-0.089059,-0.049901,0.082765,0.066075,-0.003159,-0.084901,0.06346,0.065222,-0.087631,-0.170366,0.01649,-0.111503,-0.102927,-0.187212,0.125539,-0.093305,-0.076374,0.122577,0.202556,-0.065639,0.100675,-0.007574,0.074466,-0.075448,0.069659,-0.092038,-0.005105,0.089506,0.125255,0.055167,0.040426,0.08766,0.124972,0.093392,-0.022486,-0.091992,-0.070327,-0.050439,
P272,0.087746,0.106228,0.149041,0.055021,-0.080063,0.008712,0.039424,-0.057999,-0.038885,-0.043506,0.033506,0.044769,0.058199,-0.145839,-0.006583,-0.152772,0.050599,0.167075,-0.189623,0.058526,0.052347,-0.148024,0.077433,-0.078499,-0.092245,-0.16,-0.019234,-0.012789,0.195617,0.17003,-0.145624,0.057292,0.190978,0.08497,-0.085066,-0.044581,-0.238688,-0.215388,-0.189618,-0.087119,0.022935,0.081542,0.068993,0.041587,-0.256058,0.076961,0.081665,0.117272,0.014756,0.04583,0.086424,-0.052035,0.045502,0.114247,0.035468,0.025949,0.081048,0.046531,-0.00186,0.045074,-0.06059,0.035191,-0.080777,-0.043857,-0.002224,-0.066612,-0.107677,-0.072302,0.08575,-0.037751,-0.17839,0.048954,-0.015974,-0.097183,-0.148834,-0.161967,0.104985,-0.109731,-0.049705,0.126977,0.137829,-0.098983,0.098175,-0.023951,0.001489,-0.058001,0.038586,-0.11402,0.089366,-0.045734,0.064492,0.043129,0.02522,-0.083862,0.166329,-0.074273,-0.00841,-0.086662,-0.033761,-0.052766,
P364,0.124686,0.162659,0.096462,0.148473,0.006682,-0.019312,0.02845,-0.040999,-0.055206,0.059795,0.180614,0.05498,-0.075035,-0.176946,-0.051981,0.081238,0.081515,-0.086398,-0.118144,0.144886,-0.024174,-0.151099,0.032018,-0.155089,-0.130946,-0.03136,0.075341,-0.021534,-0.028093,0.13322,-0.104908,0.096573,0.053919,-0.03024,-0.044229,-0.089104,-0.182942,-0.165715,-0.08609,0.008462,-0.183113,0.185288,-0.069578,-0.084148,0.06874,0.210843,0.080163,0.125436,-0.023697,-0.082809,0.003199,-0.007614,0.116754,-0.06132,-0.037705,0.057048,-0.06512,0.0549,0.068886,0.012496,-0.079005,-0.015844,-0.089895,-0.057443,-0.017684,0.038914,-0.124724,-0.157447,0.09777,-0.019379,-0.115135,-0.023486,0.099966,-0.026126,-0.175391,-0.111201,-0.004225,-0.138732,-0.072937,-0.095857,0.094501,-0.10338,-0.055367,0.053826,0.164024,-0.171239,0.089211,0.06035,-0.115644,0.058734,-0.024871,-0.045656,-0.011324,0.142621,0.160757,-0.069325,0.054027,-0.186055,-0.109809,-0.062107,
P162,-0.000191,0.083391,0.161243,0.104359,-0.082671,0.023376,-0.008394,-0.062367,0.129522,-0.044124,-0.144252,-0.050376,-0.040004,-0.123555,0.033806,-0.121959,0.063769,0.13554,-0.189118,0.074893,0.067653,-0.064639,0.085784,-0.088019,-0.069749,-0.052957,0.056016,-0.001585,0.111292,0.203945,-0.142512,0.087676,0.053081,0.100751,-0.065943,-0.024173,-0.221136,-0.234859,-0.203355,-0.097173,-0.108392,0.055927,-0.004785,-0.039045,-0.242264,0.093216,-0.015099,0.026865,-0.018713,0.010431,0.032213,-0.202768,0.074937,0.068989,-0.01051,0.036284,0.090284,0.081698,-0.062758,0.038782,0.057683,-0.10602,-0.075171,-0.107318,0.05521,0.017138,0.017744,-0.038547,0.060946,0.075337,-0.139361,0.110946,0.025359,-0.058278,-0.109114,-0.19576,0.114476,-0.036902,-0.077986,0.1139,0.189129,-0.027123,0.103124,0.027089,0.072361,-0.081845,-0.065289,-0.109955,-0.061442,0.038248,0.073336,0.048001,0.0562,-0.12779,0.08318,-0.131031,-0.089586,-0.146198,-0.035794,0.034377,
P1040,0.058131,0.087703,0.109606,0.117464,-0.071468,0.055008,0.006485,-0.039583,0.030236,-0.073503,0.0679,-0.064718,0.028592,-0.172711,0.013146,-0.099759,0.087721,0.097356,-0.161897,0.065255,0.068418,-0.104287,0.120872,-0.073497,-0.070823,-0.060616,0.111634,0.010936,0.104269,0.163096,-0.063395,0.048766,0.050242,0.07918,-0.076625,0.008928,-0.092484,-0.199761,-0.085201,-0.132299,-0.057332,0.092696,0.0189,-0.032132,-0.117426,0.105363,0.04997,0.172363,0.173567,-0.070123,0.057617,-0.149116,0.054036,0.076178,0.091032,0.081277,0.077806,0.067722,-0.086008,0.034715,0.0492,-0.09494,-0.089008,-0.127587,0.077293,-0.074224,0.030366,-0.029463,0.014085,0.093009,-0.127952,-0.094399,0.072823,-0.112087,-0.121857,-0.070599,0.066687,-0.075264,-0.084344,0.127013,0.120839,-0.098128,0.008477,0.060851,0.104554,0.011003,0.046983,-0.111848,-0.047045,0.009666,0.094536,-0.043108,0.026824,0.090838,-0.010873,0.070051,-0.069058,-0.089575,-0.047658,-0.004276,
P1657,0.014113,7.8e-05,0.00011,-0.018244,-0.082446,0.087387,0.005588,-0.119408,0.083072,-0.12384,0.063209,-0.092417,0.068794,-0.149672,-0.106393,-0.087049,0.117544,-0.052421,-0.051952,0.025942,0.046816,-0.097412,0.099737,-0.016231,-0.116371,0.065784,0.086061,-0.049659,0.062711,0.047977,0.039694,0.099893,0.018642,0.109914,-0.048796,-0.039472,-0.047333,-0.17231,-0.088858,0.016353,0.068088,0.128035,0.0823,-0.150019,-0.053152,0.01985,0.128995,0.141188,0.137613,0.025181,0.08008,-0.007835,0.139547,-0.065386,0.031317,-0.008829,0.053574,-0.043995,-0.027176,0.068403,-0.094626,0.017426,-0.020531,-0.1386,-0.059191,0.033035,-0.054525,-0.023398,0.026768,0.019602,-0.121781,-0.086566,0.031333,-0.003281,-0.07959,-0.01152,-0.02878,-0.146353,-0.10214,-0.034449,0.021793,-0.054569,0.082458,0.04574,-0.043034,-0.04649,0.039109,-0.099371,0.089026,0.096354,0.036828,0.044752,0.03875,0.072261,0.064024,0.046144,-0.087149,-0.131105,0.048694,-0.113544,
P750,0.111019,0.124787,0.168197,0.052359,-0.072305,-0.00116,0.014058,-0.037671,-0.008105,-0.056041,0.198598,0.031175,0.070485,-0.135805,0.006698,-0.12968,0.048834,0.158784,-0.190903,0.043731,0.064557,-0.172882,0.063692,-0.101071,-0.095351,-0.141942,-0.025767,-0.008734,0.180234,0.185407,-0.134892,0.039455,0.193803,0.061504,-0.08868,-0.041628,-0.25634,-0.243717,-0.171459,-0.054835,-0.004778,0.091965,0.064273,0.03871,-0.189789,0.056296,0.088498,0.160594,0.014385,0.019563,0.095187,0.008215,0.045205,0.10055,0.037368,0.019506,0.074753,0.038265,-0.008382,0.043555,-0.03076,0.020866,-0.078076,-0.059052,-0.002125,-0.058162,-0.108121,-0.0664,0.089964,-0.032102,-0.163936,0.054823,-0.008361,-0.062192,-0.152683,-0.150409,0.110547,-0.11219,-0.026214,0.112717,0.133736,-0.083388,0.062203,-0.03617,0.005057,-0.063481,0.026392,-0.114043,0.088303,-0.053822,0.000897,0.042301,0.006611,-0.086027,0.171684,-0.053039,-0.016776,-0.081054,-0.028759,-0.040924,
P840,0.047625,-0.039063,0.141114,0.03051,-0.026978,-0.061118,0.108144,-0.150179,0.15446,0.061137,0.131122,-0.021568,-0.031832,-0.141963,-0.120541,-0.090987,0.028084,0.083804,-0.101806,-0.013293,0.007906,-0.084842,0.022426,0.066926,-0.053401,-0.096891,0.074172,-0.072935,0.165652,0.154844,-0.106166,0.024669,0.160298,0.04318,-0.103838,0.070022,-0.137897,-0.162949,-0.13765,0.07298,-0.153452,-0.003225,-0.083859,-0.068972,-0.193423,0.061468,-0.066543,0.160936,0.104857,0.041358,-0.124353,-0.023573,0.105543,0.089767,0.11002,0.105279,0.07512,-0.028541,0.014683,-0.052044,-0.028708,0.031941,-0.063023,0.007564,-0.003846,-0.188048,-0.177468,-0.157515,-0.052099,-0.060841,-0.163382,-0.158833,0.098238,0.029892,-0.172115,-0.157611,-0.039232,0.041338,-0.047425,0.094236,0.131624,-0.147323,0.113845,0.099689,0.133524,-0.087971,0.048497,0.097111,-0.059847,-0.044678,-0.130371,0.0764,-0.090664,-0.033432,-0.084537,-0.051346,0.01123,-0.164253,-0.129056,0.064587,
